<?xml version="1.0"?>
<opencv_storage>
<my_nn type_id="opencv-ml-ann-mlp">
  <layer_sizes type_id="opencv-matrix">
    <rows>1</rows>
    <cols>5</cols>
    <dt>i</dt>
    <data>
      128 128 128 128 12</data></layer_sizes>
  <activation_function>SIGMOID_SYM</activation_function>
  <f_param1>1.</f_param1>
  <f_param2>1.</f_param2>
  <min_val>-9.4999999999999996e-001</min_val>
  <max_val>9.4999999999999996e-001</max_val>
  <min_val1>-9.7999999999999998e-001</min_val1>
  <max_val1>9.7999999999999998e-001</max_val1>
  <training_params>
    <train_method>BACKPROP</train_method>
    <dw_scale>1.0000000000000000e-003</dw_scale>
    <moment_scale>1.0000000000000001e-001</moment_scale>
    <term_criteria><epsilon>9.9999997473787516e-005</epsilon>
      <iterations>10000</iterations></term_criteria></training_params>
  <input_scale>
    9.4673996094726941e-003 -5.3102052697056745e-001
    9.7772880520588159e-003 -5.0227761964935891e-001
    9.1402311796257608e-003 -5.6695711478321131e-001
    1.1317303017744414e-002 -4.0270500794327668e-001
    8.3660618554738993e-003 -6.9547072204554516e-001
    1.0271951351499994e-002 -4.6395194269928125e-001
    1.0330511179452882e-002 -4.5990144457026794e-001
    1.0378623513437765e-002 -4.5663997467217399e-001
    1.1591660408745789e-002 -3.8968264379101158e-001
    9.0998541211772602e-003 -5.7189739447186205e-001
    1.1210320114889058e-002 -4.0806966508210529e-001
    9.2286829544755231e-003 -5.5655879727703261e-001
    1.2527152255381091e-002 -3.5178592374157985e-001
    1.0098511196947092e-002 -4.7650456239744665e-001
    1.9738557281448948e-002 -2.0720550506201033e-001
    1.2839810189525359e-002 -3.4092103517600364e-001
    7.9038910903717566e-003 -8.8303753241212712e-001
    7.8823845780772329e-003 -9.0483863167893064e-001
    7.8962126061138081e-003 -1.1233003999471138e+000
    8.1021610071907758e-003 -7.7390829170560393e-001
    8.0770479617005217e-003 -7.8378158973849044e-001
    8.6058559340637577e-003 -6.4563820547325701e-001
    8.4383581511201060e-003 -6.7897666670834589e-001
    8.5004515417044166e-003 -6.6590943543048320e-001
    9.0216623926224291e-003 -5.8184083893419269e-001
    7.9287813736199416e-003 -8.6273565675194441e-001
    8.2943551659553048e-003 -7.1348043137547534e-001
    7.9060630155658417e-003 -8.8109613405911991e-001
    8.0770479617005217e-003 -7.8378158973849044e-001
    7.8454762365131169e-003 -9.7587427194662746e-001
    1.1138958520606515e-002 -4.1174463986514442e-001
    8.6478684458629433e-003 -6.3813161753800518e-001
    7.8778330425015777e-003 -1.0985884360051028e+000
    7.8440795815635910e-003 -9.8461828437629273e-001
    8.2177892733099681e-003 -7.3500934484143510e-001
    9.6598276543511316e-003 -5.1266516579326649e-001
    9.8123641425579607e-003 -4.9928375121129454e-001
    9.7198971396075858e-003 -5.0728143171611983e-001
    9.1838507551931826e-003 -5.6175893097500096e-001
    8.0164841729765644e-003 -8.1069702380790376e-001
    8.4902387201037325e-003 -6.6799606330016148e-001
    8.4732472020149566e-003 -6.7152072809818908e-001
    9.5720328442576910e-003 -5.2082028957658855e-001
    9.0579849782859937e-003 -5.7715781909454922e-001
    9.5618441299266371e-003 -5.2178983417009661e-001
    8.0199675492052935e-003 -8.0900420156664743e-001
    1.0351992513655088e-002 -4.5843798846721556e-001
    7.8456718435559441e-003 -1.0257480403714063e+000
    7.8562866985664014e-003 -1.0596068481107701e+000
    7.8983968959024965e-003 -8.8813030246169622e-001
    1.0196397022774799e-002 -4.6931466396576699e-001
    9.8551027473204860e-003 -4.9569934931178627e-001
    8.8684216748498024e-003 -6.0295844690949130e-001
    9.5389512597825795e-003 -5.2398651638893179e-001
    9.3138681179786541e-003 -5.4705004390947620e-001
    7.8609774612186916e-003 -9.3478813480082068e-001
    8.2411041766021036e-003 -7.2816336228412037e-001
    9.4571270340062536e-003 -5.3205205622879559e-001
    1.0788768758517264e-002 -4.3101131190276465e-001
    9.5604897685121742e-003 -5.2191908707529022e-001
    9.8464842694131402e-003 -4.9641665849513184e-001
    8.6263014633335983e-003 -6.4194778914762807e-001
    9.6541334645653971e-003 -5.1318356580921975e-001
    8.1372335046716350e-003 -1.3139038366865075e+000
    7.8654877689486920e-003 -9.2730168052020601e-001
    8.0243754086290111e-003 -8.0689106921469012e-001
    9.7539859159671075e-003 -5.0429326433789445e-001
    9.9696458179379128e-003 -4.8641901945719074e-001
    9.2180557519016149e-003 -5.5777879226272176e-001
    9.0216623926224291e-003 -5.8184083893419269e-001
    8.7580899262052966e-003 -6.1974433840310228e-001
    7.8987126457619617e-003 -1.1263416131994448e+000
    7.9540523606812866e-003 -8.4537159874138346e-001
    9.0701208690727175e-003 -5.7561821447907047e-001
    1.0805174175268134e-002 -4.3005943864339080e-001
    1.0086241667825260e-002 -4.7742594544546629e-001
    1.0859808831114204e-002 -4.2692623467317714e-001
    9.1562477172462409e-003 -5.6503204663126549e-001
    8.5774483897444707e-003 -6.5088894924527196e-001
    9.0340024488181903e-003 -1.7234335859156376e+000
    7.9676293628849933e-003 -8.3699448480271676e-001
    8.1738787329623201e-003 -7.4871196591672418e-001
    8.0073805245777611e-003 -8.1522140198160620e-001
    9.6705490842762826e-003 -5.1169292842176883e-001
    9.2851850394109706e-003 -5.5019944275094668e-001
    8.2915940853410773e-003 -7.1421200327976375e-001
    8.1129500134447061e-003 -7.6985303855704335e-001
    8.1331663028041817e-003 -1.3114324004956603e+000
    7.8441943585575557e-003 -9.8371590139933252e-001
    7.8431765798164521e-003 -9.9683833138249678e-001
    8.6534180152659200e-003 -6.3716198523654877e-001
    8.5760649322936689e-003 -6.5114845006556210e-001
    9.3490540709320197e-003 -5.4325600258547668e-001
    7.9826891979219057e-003 -8.2831376626086917e-001
    8.3578224076058995e-003 -6.9744983263670279e-001
    8.3139800641101012e-003 -1.4116982261732749e+000
    9.2770781752525358e-003 -5.5109903082701728e-001
    9.3233393215647557e-003 -5.4602136736743989e-001
    7.9908979974078007e-003 -8.2381663473150879e-001
    8.0223109754245184e-003 -8.0787679889140684e-001
    7.8431389978219305e-003 -9.9933355540748126e-001
    7.8724168489889574e-003 -9.1724480863888713e-001
    7.8841907106412742e-003 -9.0278418494117318e-001
    7.8447992481692399e-003 -9.7962420911466397e-001
    8.0458989160999070e-003 -7.9700160319474389e-001
    8.0116143893614929e-003 -1.2298629249108828e+000
    7.9065698400387213e-003 -8.8064857360196280e-001
    8.1258899809941894e-003 -1.3069783019055816e+000
    7.8431687365729894e-003 -9.9717066920696917e-001
    7.9986804490495729e-003 -1.2199737396148829e+000
    8.4867528747662683e-003 -6.6871369276720816e-001
    7.9291777694899361e-003 -8.6244179877910254e-001
    1.4746665610832980e-002 -2.8798394604755456e-001
    1.4805929782213350e-002 -2.8662429317142268e-001
    1.0801650081352603e-002 -4.3026347789677838e-001
    9.5967108538803862e-003 -5.1849229360230620e-001
    8.3399884325316351e-003 -7.0181002659753700e-001
    9.8402386433124253e-003 -4.9693820163642954e-001
    9.9392004717014596e-003 -4.8884093919975180e-001
    1.0651138809142757e-002 -4.3920636575675731e-001
    1.2152111408930823e-002 -3.6591526466216823e-001
    1.0618128917461526e-002 -4.4122971083454032e-001
    9.8371228628979200e-003 -4.9719893049980740e-001
    7.8476079863613254e-003 -9.6680078014475790e-001
    8.9233181646013963e-003 -5.9512397376653148e-001
    8.9380854358374374e-003 -5.9306990018480088e-001
    1.3172506705355358e-002 -3.3016064775304116e-001
    1.0803998951705118e-002 -4.3012745576541522e-001</input_scale>
  <output_scale>
    5.2631578947368418e-001 4.9999999999999994e-001
    5.2631578947368418e-001 4.9999999999999994e-001
    5.2631578947368418e-001 4.9999999999999994e-001
    5.2631578947368418e-001 4.9999999999999994e-001
    5.2631578947368418e-001 4.9999999999999994e-001
    5.2631578947368418e-001 4.9999999999999994e-001
    5.2631578947368418e-001 4.9999999999999994e-001
    5.2631578947368418e-001 4.9999999999999994e-001
    5.2631578947368418e-001 4.9999999999999994e-001
    5.2631578947368418e-001 4.9999999999999994e-001
    5.2631578947368418e-001 4.9999999999999994e-001
    5.2631578947368418e-001 4.9999999999999994e-001</output_scale>
  <inv_output_scale>
    1.8999999999999999e+000 -9.4999999999999996e-001
    1.8999999999999999e+000 -9.4999999999999996e-001
    1.8999999999999999e+000 -9.4999999999999996e-001
    1.8999999999999999e+000 -9.4999999999999996e-001
    1.8999999999999999e+000 -9.4999999999999996e-001
    1.8999999999999999e+000 -9.4999999999999996e-001
    1.8999999999999999e+000 -9.4999999999999996e-001
    1.8999999999999999e+000 -9.4999999999999996e-001
    1.8999999999999999e+000 -9.4999999999999996e-001
    1.8999999999999999e+000 -9.4999999999999996e-001
    1.8999999999999999e+000 -9.4999999999999996e-001
    1.8999999999999999e+000 -9.4999999999999996e-001</inv_output_scale>
  <weights>
    <_>
      -5.4098672296620728e-002 2.4218640774876215e-003
      3.5618270294304893e-002 9.6636857942512658e-002
      1.2497367769527044e-001 1.5591935105231753e-002
      -1.0817343591172801e-001 4.6861793886831782e-001
      -1.0111522169556335e-001 -6.4455510833380192e-002
      1.0762682439974842e-001 -9.7742791309844951e-002
      1.1459401345998406e-001 8.9098597670399751e-002
      -1.8339161147028826e-002 -3.7159560150700266e-002
      -3.8403101468767423e-002 -2.8092042183546612e-001
      1.4898939314697532e-001 -4.6703169345173202e-003
      -3.5036223040522019e-003 -6.5262401766495989e-002
      -1.2884935619393691e-003 1.1146768214528413e-001
      -4.1552905934560611e-002 -2.0484057960201228e-002
      -5.4985614086347091e-002 5.8910028773591312e-002
      2.1619254455864701e-002 8.8326107982575855e-002
      2.7639260300709367e-004 1.0256278167387356e-001
      -6.2346112401478040e-002 -1.5009562939036541e-001
      7.9683017286519102e-003 -3.8363856337147020e-002
      9.2393482424979571e-003 -6.3999290772485840e-002
      3.4060931592731616e-002 1.5018094119078117e-003
      1.6586087042741709e-002 1.0493557222487339e-001
      1.2267357218783356e-003 1.5987202523927904e-002
      -3.2437689178077544e-002 1.0564056626093890e-001
      3.9214207065046990e-002 2.5243821748449982e-002
      3.6720496382129049e-002 -1.5165472858516968e-001
      3.7264818453072265e-002 -1.0077185542800028e-001
      6.6461594808690766e-002 5.6342543134679122e-003
      7.5150971562798555e-002 -3.4963562717777619e-002
      1.7194347847923536e-002 1.7337295416682722e-002
      -1.9019051810509072e-002 -7.8473743853164468e-002
      -1.1831318076046538e-001 1.8135179810495262e-002
      6.9696011061558913e-002 -8.0029472559230846e-003
      2.0571993611350457e-002 -3.6929534818143900e-002
      3.5084295721614853e-002 -3.2973325602277385e-002
      -2.6018800913666595e-002 1.6946012963334756e-002
      -3.9835968775214304e-003 -8.0381360621477951e-002
      -2.3705083504121618e-001 1.0051506597680983e-002
      6.4613447215596018e-002 4.2563015518840022e-002
      1.4280072352609779e-001 -4.6463283865579678e-002
      2.2930786139568264e-003 5.4885685669190165e-002
      -1.6083571011197988e-002 -2.2424341712045610e-002
      2.5050947752563946e-001 7.8115947052383547e-002
      2.6243993038677183e-002 1.7387648600168462e-001
      -6.4987238220374971e-002 -2.1124816060417655e-002
      -2.5987817918781655e-002 3.4526996348245901e-003
      2.6394553662516012e-002 -1.0254274755380014e-002
      -2.4868377505754501e-002 -4.8542660310477326e-002
      -1.3452048998934560e-003 1.7436112180140909e-002
      8.0032437284109900e-002 -3.6944005712349681e-002
      -2.4404417308799015e-002 1.5408362557398970e-003
      4.2570520295591281e-002 2.0097979019969497e-002
      4.9240265335206132e-002 6.7032993825541676e-002
      2.7485735771206169e-002 -1.1221777016388654e-001
      -6.4105160299695430e-002 -3.7006176598689898e-002
      8.6096568006396035e-002 -4.8218699705866300e-002
      -8.4173231209339172e-002 6.5643363464798626e-002
      -7.1169616347405734e-002 1.0316219950952358e-002
      -2.6560144017251451e-002 -4.6875867589055570e-003
      -1.1603499318555460e-002 1.6309457922613363e-004
      7.7433786129330273e-002 1.6324852091151412e-001
      -6.3484659599518906e-002 -3.1562181178689745e-002
      6.6079855916473837e-004 -4.1183429628178919e-002
      1.0253307657303007e-002 -2.7900409110926110e-002
      -1.5737188021029542e-002 -3.8203670757354598e-002
      2.9404006427016577e-001 -6.1590205546418336e-003
      -1.7816305694360690e-001 7.8359965909104004e-002
      -5.4299281901597274e-002 -7.9507034912025071e-002
      -9.6335598352311304e-004 2.7990343200463075e-001
      -3.0637548933309561e-001 5.3822468736076157e-002
      -6.0040177172278504e-004 -6.1533588995534650e-003
      4.8143022480574914e-002 7.4556402689512705e-002
      2.4206627117394984e-002 2.4151759975664044e-002
      -1.2058331480560730e-001 -1.5358324538877538e-001
      1.4710269700799073e-002 6.9479345165660691e-002
      5.0299636038731242e-002 -2.0860650167998093e-001
      7.4966079291277701e-002 6.3940143893398083e-002
      5.2892251194592815e-002 3.9283455746935300e-002
      -3.0050465317675027e-002 1.0714329975352812e-002
      -1.6523913762053550e-002 -4.8384398839043316e-002
      4.1541316072901908e-002 -1.4365803490419488e-001
      1.2904702791157985e-002 -7.5905782447705933e-002
      -6.6031511747487837e-002 -4.8645179777898978e-002
      1.6949089566227246e-001 -6.5928154261936101e-002
      -7.6641842577024388e-002 2.2089112795109233e-002
      5.0837718416348925e-002 8.2403535999953204e-002
      5.1669535337727009e-002 1.2162442385372228e-001
      1.0182914044288856e-001 -2.1064701032390832e-004
      -1.0700250395271860e-001 4.9638689478498236e-003
      7.1536446966270095e-002 -1.3673238441259744e-001
      -3.6770826656404756e-002 -1.5778533010160178e-001
      3.4141241794255546e-002 -6.2047505549397121e-002
      3.2341576015521558e-003 -5.0858155328859051e-003
      3.6296632358887915e-002 -7.8046558569416918e-002
      1.5360161034401398e-001 -5.9579786222062808e-002
      -1.4480450565500852e-001 -3.4401660827965731e-002
      -1.8798627786929322e-002 3.4408608410593969e-002
      1.7804265277436886e-002 2.0754018855840561e-002
      8.5959138881802816e-002 -1.0111891040854127e-002
      -3.1532410981445914e-002 -2.6406004109322884e-002
      7.8788792798053744e-002 -8.7167605391828759e-002
      -1.3223374406028274e-001 1.0414107576831148e-001
      8.4001153496414474e-002 1.6385601491676488e-001
      4.0788623305422753e-002 2.1545633657701589e-002
      7.5675548205844309e-002 6.9327272139885765e-002
      -3.7388916000610908e-002 -2.3345928411700398e-003
      -3.3705323171701905e-002 -7.8922672556421117e-002
      2.9329397002712636e-002 -4.0854229551338994e-002
      -7.0496610315881281e-002 -4.2614565270125672e-002
      3.9365643657921147e-002 1.0147025151028859e-001
      -1.6830525011504383e-002 -1.0569590845064586e-002
      -2.9020462782788949e-002 -1.0655328334569399e-001
      5.1817940037667168e-002 -5.5856206926908165e-003
      -3.8600870937248150e-002 7.2369051864703115e-003
      -1.0536546395150623e-002 8.0065897496641239e-002
      1.1645678790632473e-001 -5.5281727182094377e-002
      1.6899823536854978e-002 -7.3138951932922691e-002
      -1.1035318994141728e-001 5.8697544814760791e-002
      -3.6027282989788308e-002 -2.9048707693646292e-003
      1.0079122256456163e-001 -1.0135611414825629e-001
      1.0922210029079772e-001 -7.0555982901090816e-002
      9.6969177966733204e-003 -4.5863579828019918e-002
      1.2258060929161037e-001 1.6497950307125721e-002
      -4.5627630573311768e-002 6.2635190887862874e-002
      6.9023431048616073e-004 1.3825953407129696e-001
      -2.3826807151872492e-002 -5.8202110321712047e-002
      -5.4002305052535064e-003 -1.0782542875224059e-001
      5.3987280158689184e-003 7.4120541961657793e-002
      6.0466002301078708e-002 -5.6794870329855751e-002
      2.5177243117643139e-001 9.7243768954145521e-002
      -8.0934515329017701e-002 1.2201038726664747e-001
      -2.3170749099095680e-002 -2.0722411951774400e-003
      -1.7754786447685653e-001 9.5312311635213767e-002
      -2.8419039078986180e-001 2.8319217567733652e-002
      -6.2623986484977370e-002 -5.9676359910335985e-002
      9.8013501810161982e-002 6.3472946204327668e-002
      3.0796370404242785e-002 -3.6550518256988677e-002
      -9.2464825741485034e-003 -8.1894430747108643e-002
      7.4777938702872901e-002 5.0692135767708847e-002
      -4.0550572474040182e-002 -2.4015550291632792e-001
      -5.8474209377588349e-002 1.0595447961347808e-001
      5.8095438679841953e-003 -2.2504059494197286e-003
      8.5506578284639145e-002 6.5151688281577299e-003
      5.5944921882252009e-002 -7.4824709277213464e-002
      -3.0821013080796864e-002 -1.5077578362237590e-001
      -1.5440908426665728e-001 -4.0550134326819552e-002
      5.0823409379995285e-002 -1.9842897991814649e-002
      7.2201680171487856e-002 -2.0726981991653812e-001
      -1.3508633867088363e-001 2.9669864740131821e-002
      -2.3232364088480775e-001 -9.5428320960482902e-003
      7.1654875811566071e-002 4.3009712514980807e-002
      -2.9644684173375260e-002 3.6167155551203013e-002
      -1.2528916024899223e-001 -8.1766866552788184e-002
      6.3931359388792866e-002 -5.0894695761607073e-002
      -3.5785577889732120e-002 -3.7263296232389796e-002
      2.9752385350301513e-002 -2.1175528377306425e-002
      6.7111704061724523e-002 4.6250087684801813e-003
      3.3210190600774118e-002 -2.9683689198460168e-002
      2.1529523569470657e-001 1.7529894021161538e-001
      -1.3008640997641263e-001 -1.0372774821780041e-002
      1.8361400035662667e-001 2.1852973262777391e-002
      -6.5828791654604951e-002 2.4613175457913875e-002
      -5.2926407790125148e-002 1.6895972355152655e-001
      4.5407326157777234e-002 -3.6814154773056190e-002
      2.8176817159312299e-002 1.2224524607873742e-001
      1.8122329905989673e-001 5.1241043187068513e-002
      6.8984812174939417e-002 6.1561493650502119e-002
      1.2571509121968930e-001 6.8506658319435434e-002
      3.3196314320155865e-002 -3.3409644000854119e-003
      -7.0499301416739615e-002 3.5036019280369275e-003
      1.3007061172708373e-001 1.9695705466666263e-001
      -6.6191984770087017e-002 -1.5682626939653965e-001
      -1.0452073615273066e-001 1.9951690039501702e-002
      1.1225858734756113e-001 2.3749315768371179e-001
      1.2746969166542177e-001 -4.6040782357913777e-002
      -5.7637524397634990e-002 -3.0035542129574440e-002
      -3.5742877254611470e-002 5.7107012848723389e-002
      -3.7605028906368028e-002 1.5966290976282150e-002
      5.2192659645921791e-002 7.0396834032419364e-002
      7.6055581081988205e-002 -3.2755473478118156e-002
      1.2825109015233671e-001 -5.6066440290430161e-002
      1.7231708292969109e-002 -4.3420598258501072e-002
      9.8506283238799369e-002 1.4731459057342605e-001
      1.5828973064042437e-001 5.1278403947452644e-002
      -8.7920056680557926e-002 1.7192465667697446e-001
      -7.2373314313343234e-002 6.1155173439550264e-002
      1.0684480821346186e-001 4.7811316800988587e-002
      7.4756787938858940e-002 -1.8712189333347437e-002
      -1.1716961364124772e-002 1.9289049877726599e-002
      -1.0357845902285348e-002 -5.0536697066165655e-002
      -5.4502807728728231e-002 -1.1870626271685035e-001
      7.2435524229619089e-002 5.4530070721999752e-002
      1.4727287048447718e-002 2.9353503332803791e-002
      1.0140003245102110e-001 -1.0159558338073915e-001
      -1.6750866390678154e-001 1.2554375716569977e-001
      1.7479382435542246e-002 -5.6933405451253825e-002
      -1.5734906608283233e-001 3.5783530448942592e-002
      1.7713066935345939e-001 6.2704573834378068e-003
      -3.3068668410689700e-002 2.3876497666171670e-002
      1.6861180316057864e-002 1.2113911363845620e-002
      3.3071383861713283e-003 -1.6292085754219129e-001
      -9.4723376018563205e-002 -8.9581794196016917e-002
      -9.5943974397298074e-004 -5.3322186740519577e-002
      -7.7521769848300323e-002 2.0249949030874356e-001
      -5.3743677012048567e-002 -3.0449267910628047e-002
      1.2877358957892861e-002 -1.0926382881954869e-002
      4.4851230873311360e-002 2.8532464027562068e-002
      -6.0444288314234644e-002 -2.8273922372748849e-002
      6.2320762977859885e-002 -2.5592913800656159e-001
      6.9704574905941910e-002 -4.4069319725103279e-002
      -1.1734038956095338e-001 8.3849695719062006e-002
      -8.4184316953208382e-002 8.6211914365033088e-002
      7.3256727027298366e-002 2.6253852442944967e-002
      -1.8559996366310083e-001 -2.5241013144749753e-002
      -8.7221628171791118e-002 -1.8027226977225169e-002
      6.3883651647601639e-003 2.1039780824678549e-002
      -6.2680630985929187e-002 1.0238632192524171e-001
      -2.2827717595564212e-001 3.0025950958457492e-001
      -7.8570097392859292e-002 1.0260885009028450e-001
      -9.3366002124593547e-002 -1.3045101305520650e-002
      -6.2716276432919160e-002 1.9994682418340130e-002
      3.4072302751806685e-002 1.4731525527123679e-001
      4.9121026856627351e-002 4.5944268796585519e-001
      -1.8197624855311337e-001 -1.6202842567607140e-002
      -3.1432637819697996e-002 3.2791465745602385e-003
      -6.1143105487569384e-002 -8.6727748245770939e-002
      6.9329543146063585e-002 -1.4507110765491141e-001
      1.6756078959478709e-002 -3.6281857221349079e-002
      5.2899508653859326e-002 9.9989377332851598e-002
      1.1769332886734377e-001 6.1274338664423895e-002
      -9.3216435799376770e-003 2.4537118948819317e-001
      9.0120792299934069e-002 6.6843054014503564e-002
      -1.9730574812466720e-002 -2.4453905776547994e-002
      4.2524772849166829e-002 -1.9989314212222071e-002
      -3.3133317712869370e-002 2.2986091640617941e-002
      4.1411219812418985e-002 -1.3213422200007893e-001
      -9.5566846340146682e-003 1.1806098341398294e-001
      2.1729755921363881e-002 7.1557675072278656e-002
      3.2207982119378674e-003 -5.2956196250224671e-002
      8.3746124276943473e-002 2.1680960133407923e-002
      -2.8540963583376027e-002 4.9771051030752404e-002
      -3.7249740686306827e-002 -8.8121409519543049e-003
      8.0008024373334694e-003 1.3420820258961031e-002
      5.6806252422052596e-002 -5.6378752641944682e-002
      2.2770508300791620e-001 3.1819728456840661e-002
      -9.4062643188058629e-003 -8.5060671087891296e-003
      -1.6773411389468644e-003 -6.4801905530434453e-002
      -2.5577123542142480e-002 2.2899015977272025e-002
      -6.4004512593665630e-002 -6.1786797352923528e-002
      -1.5102165414367869e-001 8.7780987817065899e-003
      2.4337285349437500e-002 5.1369209065833206e-002
      -1.0686490968002085e-001 -3.6162685001572465e-003
      7.6745919801034429e-002 6.7225601865472953e-002
      3.8506236412478030e-002 2.6408079194313733e-002
      -4.9048954381627374e-002 -1.4543789644373603e-001
      4.9844761849818717e-002 -2.0091411097986900e-002
      -1.0781860841672613e-002 5.4711360779487912e-002
      1.9162468263091231e-001 3.2240584232054420e-002
      3.2813377693341500e-002 3.2782410651260863e-002
      -4.2040900510652290e-002 1.9541054189091606e-002
      -1.0130107671813095e-001 1.0078661202836699e-001
      -4.1919394542516732e-002 2.6863222574038786e-005
      -1.3140130650476409e-001 -1.1957168601371264e-002
      -1.2462390756144816e-001 -3.7017797430404523e-002
      9.5645864255269886e-003 -1.1929056120716443e-001
      -2.8232908853581928e-002 9.3157265310140361e-002
      -7.2599378098865866e-002 2.0754334965504374e-002
      -1.2934862998883351e-002 7.3347331569723270e-002
      7.6677507704766057e-002 4.6474320664490712e-002
      -7.2942897540931957e-004 1.6358518000197303e-002
      -1.3438451413627675e-001 8.7312848654669262e-002
      6.3843271265830948e-002 -1.9285734530788434e-001
      -3.0258126008837392e-002 2.6365053435539024e-002
      -6.9660778738745349e-002 1.3716494367904647e-002
      2.3887670530209112e-002 -2.7559422411140701e-002
      2.3514829035488651e-002 8.3774605518654500e-004
      -1.3011035919000943e-001 3.2013385525755493e-002
      -2.1937145925218091e-001 -9.5812529040312497e-002
      -1.0129630882815084e-002 -3.7629343818277393e-002
      5.0914270329510909e-002 -5.9742763222422730e-002
      -4.0258588893362084e-002 2.9797630429591781e-002
      -1.1585419727177867e-001 2.0391431079144520e-001
      -3.2096767643751078e-002 1.5442524803202090e-003
      3.6976525941938308e-002 1.2960081077184776e-002
      -1.0102195468746797e-001 2.7958408553522149e-002
      -1.9508214349212332e-002 -3.3669562976657033e-002
      7.7855922830861346e-002 4.3881418909143749e-001
      -3.4982206705714142e-001 -2.9486893054162595e-002
      -8.2627140200702817e-002 1.2931060836453749e-003
      -7.1351107679659589e-002 7.6261556827155783e-002
      -5.6211800478142532e-002 -8.8086782789516635e-002
      -7.1459550371122629e-002 -2.8743010924822690e-002
      7.8492314390416623e-002 -1.5218590054495504e-001
      4.5005270279059373e-002 -1.3759567893442926e-001
      3.0550247543497479e-002 2.0772682997015385e-001
      1.5872222784204634e-002 2.9899886342005067e-002
      -2.7247070897931200e-002 4.7603815598636894e-003
      -2.0394018981407087e-002 4.9518279442363027e-002
      3.7571609134601819e-001 -2.3409518408012094e-002
      -1.8525817312824915e-002 -5.1816885037856232e-002
      -2.9809540235023479e-002 -4.7379477679104177e-003
      4.9133119902176128e-002 2.0268494207068607e-001
      1.8471199099219949e-002 -2.2849983367794657e-002
      -1.7939648114205797e-002 -3.5012132096327420e-002
      6.7210672194651386e-003 3.0093140811386084e-002
      -4.1186382447435527e-002 3.6652671579137611e-002
      -2.0160733134168173e-002 1.4947288084803207e-002
      5.4203286463483331e-002 -2.7650564663483122e-002
      -9.3280671840111368e-003 -2.0643727027118346e-002
      7.3375799218767884e-002 1.9109792364490119e-001
      1.5592718971486125e-001 -9.9363394724049384e-002
      4.3366455519349208e-002 4.8861814450817517e-003
      1.4542119114220284e-001 -1.4087421499537708e-001
      -1.4618342527462205e-001 2.7585755113813608e-002
      8.2474746984994990e-002 -3.5774181130258827e-002
      -3.1823497544162402e-002 8.3891951070555970e-002
      -6.1804897505245732e-002 1.5369305357602372e-001
      1.8427091390636979e-004 -2.1968478169335288e-002
      -9.8919633864182691e-002 -7.6520132813125294e-002
      2.9311425440777056e-002 -4.4167439812585661e-002
      4.8124399200950560e-002 2.5756283578417836e-002
      7.9355789281968209e-002 -3.3760816560690222e-002
      2.9530963457320891e-001 2.1212579638886054e-002
      -1.4414623765134157e-001 1.4277881352271874e-002
      -1.5773706344903077e-001 1.2151012931296055e-001
      1.6724784570109197e-001 2.4485260786362845e-002
      -6.4780013131585254e-002 1.9770769574830455e-002
      -6.1564040732387720e-002 -5.9508399700409498e-002
      -5.9948643285126389e-003 1.8187494167233052e-002
      -5.7859413188039001e-003 2.3304569536910989e-002
      -1.2235050177320050e-001 -3.1658526250740351e-002
      -7.1766026057303684e-003 2.3274830404347052e-001
      1.9455863087946754e-001 -2.8507543832061067e-003
      7.4405067603849295e-002 1.0790997808683279e-003
      -2.1168099637575061e-001 5.5022458908057653e-002
      1.2565729510409095e-002 -1.1745446084290473e-001
      -3.4180945680066674e-002 -1.5662278887707320e-001
      2.9895257411082728e-002 1.7699073874542678e-001
      -2.4821776344874077e-002 8.0297262791931695e-003
      7.7962388459075415e-003 1.3475937546805442e-001
      4.1782773072723774e-002 6.9947969529559001e-003
      -7.8300561533141216e-002 3.0329412996686579e-003
      -4.3564062296632254e-002 -5.3009294632563866e-003
      4.7087835497138804e-002 -1.2603068091801961e-001
      -2.7157285116449853e-002 8.5696749283954932e-002
      -9.1853362763657853e-002 2.6660186200669789e-001
      -3.3923501725263795e-002 8.2809021345174913e-002
      2.7819529364642253e-002 4.6776466648982204e-002
      -2.0649798513272583e-001 9.4676665289471121e-002
      -2.4545721100690965e-002 -2.4810254519202928e-003
      1.0140481991612435e-001 3.3857091103222275e-001
      -4.7478201669965303e-001 -1.7604075537169566e-002
      -2.6919897984543117e-001 1.2560142985274870e-002
      -5.2539962353739228e-002 4.3725800352328634e-002
      3.8198309219658090e-002 -1.7735736314612421e-001
      -6.9987329717968824e-002 -3.3217545063191525e-003
      3.4738088065513761e-002 -2.2440059479864893e-001
      -5.1705034368582661e-002 -1.8492846816312031e-001
      -5.2538238649879304e-002 1.4144734925714184e-001
      -7.2472641167847726e-002 5.3366795886007033e-002
      -2.3314543369879540e-002 -6.2763766015112299e-002
      2.2959546626764946e-002 1.2133666937261504e-002
      2.5779076660022049e-001 -4.8414110208705216e-002
      -3.9813953790124078e-003 4.8444860578926385e-002
      4.3139951563465957e-002 -1.8819161253829328e-001
      -1.4886648298817045e-002 -9.8555521872520424e-002
      -1.4779412329278954e-002 -3.4457477285177611e-002
      -8.2637557365776559e-003 1.7762669099954140e-002
      -3.4607499324891488e-003 2.6472274765154669e-002
      -7.0285633904621350e-002 1.3409288458164968e-002
      -6.2388271615535694e-002 -1.3199840702696961e-002
      5.0819627979021547e-003 -4.3569900276239998e-002
      2.8696940883456493e-002 -3.4056176303805190e-002
      -5.8128120245727046e-003 9.8826057199832701e-002
      2.2773571082320204e-001 -1.7400567623689575e-001
      -1.3899972449564083e-001 -1.3988254980195056e-001
      1.2817067265011601e-002 -1.9685710227732689e-001
      2.4590489386266637e-002 5.2876931337868083e-002
      5.8760065054210546e-002 -7.3276509420097308e-002
      -5.2682513962151636e-002 -2.0531942753898167e-002
      -1.9485563458169257e-002 1.2229381413922073e-001
      -1.7723964681946570e-003 4.0451395553230442e-002
      -5.5609200652374874e-002 1.4280597335065898e-001
      -7.2142067142790853e-002 -1.5021647550288003e-002
      5.0652311484992225e-002 9.5784872040064594e-003
      -2.2872294353881151e-001 3.2190634534952252e-002
      1.4402745585836116e-001 5.1477168642995647e-002
      4.4622917793423721e-003 -4.2593049657420938e-002
      6.2488804532315589e-002 1.7788273189779780e-001
      3.9146568860957576e-001 5.9453088916512166e-002
      1.5745386657273274e-002 -2.4763938510315699e-002
      -1.6606241550257045e-001 -8.9308717978570831e-002
      -9.5154246246670016e-002 9.1520156481320475e-002
      -1.8537530848676844e-002 2.1618600277332797e-001
      -8.4659983437029990e-002 -8.9757781869955644e-002
      -7.0151310309201437e-002 5.2232168175631921e-001
      2.5688784639873791e-001 -1.5113081434623242e-002
      -3.4635331213533668e-002 -4.4671723587813086e-002
      -2.5961838854062691e-001 7.5382061794166316e-002
      -4.0888297506832205e-002 -3.1781791421467073e-002
      -4.4825521019261017e-002 -9.5901411544511539e-002
      1.4770396129374858e-001 4.2842715691397104e-001
      1.1627988562262681e-003 2.7923826779867645e-002
      1.2153413674784719e-002 1.3500178782665739e-001
      -1.2598375505423062e-001 -1.6196806979285626e-002
      -3.5783932752848926e-002 -4.4801158459512117e-002
      -9.4836193016699086e-002 -3.8247033483637602e-002
      9.8556158053203877e-002 -9.6730106330767160e-002
      -9.5486256142404941e-002 5.6872907267105158e-002
      -1.7850143722289474e-001 3.4371316937303009e-001
      -1.2788386363740075e-002 2.7553757128225487e-002
      9.3836576142843284e-002 2.7950660868691270e-002
      -1.5764839523548368e-001 2.3615149990785217e-001
      -1.0482308411416646e-002 1.6707285333783344e-002
      7.6388200597613434e-002 2.7055242153199299e-001
      -2.3825631875720718e-001 -3.6826849963633959e-002
      -2.6059460719253902e-001 4.4622073065661268e-003
      -4.5185984687159793e-002 -8.3103111363486120e-003
      -1.6068484964371618e-002 -9.6040977766344016e-002
      -1.4770409807374185e-001 2.2161606273194669e-002
      -5.9544760096642516e-002 -3.3943169981274296e-001
      -1.0648579845470228e-001 -2.7055173290357257e-002
      -5.9273098869438955e-002 -3.4928419411320195e-002
      -1.4719365594447503e-002 4.4915074245340546e-002
      -1.5480989531374922e-002 -4.8930126414064787e-004
      -3.6977268920358984e-002 7.3267534040177648e-002
      2.8164817802242226e-001 -5.6871781972588006e-002
      -5.8800358981208639e-002 4.7833626906773150e-003
      -7.9883183257301697e-003 -1.0049787308240962e-001
      -5.0195531108546701e-002 -1.3396890174527420e-001
      -1.3892042799623236e-002 -3.9662222511794871e-003
      -2.5343166789868796e-002 1.0501149512073836e-002
      1.2106926436417843e-002 -3.7210055887014703e-003
      -6.7612707352584470e-002 5.2988606458636558e-003
      -5.4145882270279860e-002 1.0714421603989610e-002
      -4.3733219983841262e-002 -1.1054579092298344e-002
      -2.2917445171328672e-002 7.6686348641880786e-002
      3.1320510515236655e-002 -5.8594920118190071e-002
      1.7849407783582488e-001 -1.2782937161586996e-001
      -8.7293703385981553e-002 -4.0135734313732359e-002
      -3.5868332903040812e-002 5.9046793629417442e-002
      -6.7225491350776448e-002 2.3444703620444689e-002
      -4.1799072575899099e-002 4.2153772092802341e-002
      -6.9222442917644622e-002 3.6130013662270428e-002
      3.7662256290812490e-002 5.0354289259750724e-002
      1.0637093793591565e-001 -1.8879763084239179e-003
      -4.7973580740741494e-003 7.1198904041418903e-002
      -4.4661845150720601e-002 -2.5421756616376850e-001
      2.2779241428020208e-002 4.2636741780199904e-002
      -2.1656166132944452e-001 5.8112199349878935e-002
      1.5862178070196536e-001 1.9523092847530257e-001
      -1.2560538541129436e-003 -4.7548246247689288e-002
      7.0380369081387579e-003 5.1365734581083711e-001
      2.1768438023496905e-001 3.0778195079094857e-002
      -6.1403156483479174e-002 5.7247332744972110e-002
      -6.7026273543261808e-002 4.6292464831908249e-002
      -2.5863808654145976e-002 1.0485517401245992e-001
      -2.2522068831814436e-002 -2.2898274378742031e-002
      -1.9287422829314508e-002 -8.3843799137404307e-002
      -1.5622240012477270e-002 3.8850201344630331e-001
      1.1235062224242415e-001 3.7518482198635031e-002
      1.3325932687364131e-002 -5.2604302817529008e-002
      -2.0619062214471381e-001 6.9815447201248798e-002
      -9.7941579262345466e-002 -1.4351089897967378e-001
      -6.3446116002076960e-002 -2.5921675580338043e-002
      1.4084226216609108e-001 2.7404781773953713e-001
      -1.3134635149531202e-002 1.7279734668464188e-002
      4.3796741825451978e-002 7.7229258062435482e-002
      -1.4271623678680642e-001 -1.7012062628436107e-002
      -1.4910305696290010e-001 7.3747747501415536e-003
      -5.7307016428449153e-002 -4.0661000979569019e-002
      8.8412471796841044e-002 3.6937399460427685e-002
      -9.8422576295485367e-003 2.2458093623697758e-003
      -6.8838372644666468e-002 1.6199841411886770e-001
      2.2997817679691484e-002 -8.7851878774395792e-002
      8.8111308304095970e-002 8.5995358672597680e-002
      -7.0671929392287489e-002 3.0129015414499327e-001
      -5.1712603127870058e-002 5.3686894989746971e-002
      1.1779820327603786e-001 1.9913667964780254e-001
      -6.1514547760628160e-002 -1.3636028860566723e-001
      -1.7992357975074749e-001 -3.0703868951293838e-002
      2.7717706943052100e-002 6.0837540274772568e-002
      -4.1600172157634042e-002 -8.3033477878398765e-002
      -1.5465231113423791e-001 2.7396004304443581e-003
      -8.5459657076262865e-002 -2.4701152105352061e-002
      -1.4689082899196373e-001 -8.1079613149921625e-002
      -6.3232085393115561e-002 2.1610443289936412e-001
      1.1143595027351391e-001 1.0235939721911200e-001
      8.7962654680001626e-002 -3.1785799071647983e-002
      -1.0343436139952136e-001 1.4683255909220908e-001
      3.3874829698929448e-001 -2.7305247049885246e-002
      -7.1967007357077437e-002 5.6779815898410572e-002
      -1.3691630664654597e-001 -6.8834890597814372e-003
      -6.2466662541308254e-002 4.9831359322531334e-002
      -6.1440184823368375e-002 -8.0499276959028528e-003
      -3.7698601435095319e-002 3.7516993310313954e-002
      -5.9981783672014635e-002 5.7332918141791520e-002
      -4.5163474246118926e-002 5.8643083356326280e-002
      -7.2121959253750201e-002 4.7126950551829305e-003
      -2.3306717702682920e-002 -1.2997728135938047e-001
      -6.1674190117330448e-002 -2.7848544350479957e-003
      -5.9341119389403146e-002 -1.1007694237374924e-001
      1.7706898895929951e-001 -2.1378711911680691e-002
      4.3647578330098302e-002 -1.8776967322487173e-001
      -8.3030177929335008e-002 -7.0285315162810266e-002
      -1.2523657094915272e-001 -3.5695079955121632e-002
      2.4690630124332241e-002 1.0548221477363974e-001
      -1.8740242612208854e-002 3.4198398463875256e-002
      8.1307943111701961e-002 1.5060600387895848e-001
      1.5169607745494879e-001 -8.3203307251138673e-003
      3.7462830097490872e-002 1.5893805822324708e-003
      -4.1570883567297962e-002 -3.7754237377047678e-001
      3.6447103646159183e-002 8.7062708912233985e-002
      -4.3113297302181275e-001 5.9976536825364420e-002
      -1.6386646583160588e-001 -1.2688646529179949e-004
      -6.3749151943441997e-003 -1.2252449771096442e-002
      -1.3599646234399935e-002 -1.0414150457081678e-001
      -5.7783078615847278e-002 -3.0104516931541578e-002
      3.0226427597319747e-003 2.5509352414057444e-002
      -1.1761502346167357e-001 3.5012160249683011e-002
      -4.1053003827746855e-002 7.4828970226758964e-003
      2.6997894642358886e-002 -8.8480097775430658e-002
      -1.3795589138676578e-002 -4.1008818552495975e-002
      4.4203662431020113e-002 -1.3999857098996360e-001
      1.5339742179303426e-001 6.0827868676280508e-003
      -6.1068619255043970e-002 -5.0258358328104727e-003
      -1.4089962791627425e-001 4.8884990131669075e-002
      3.6814329032969703e-002 -1.2862296259485501e-001
      -1.1420869533877340e-001 2.4577208274171441e-001
      -1.6152038279260150e-004 8.4542626853678429e-002
      3.3274158995707445e-002 -3.7143760129638033e-003
      -9.8380718610163644e-003 -4.3752526666035127e-004
      -3.8065503194700534e-002 -3.8310088239666126e-002
      -4.9709211347262271e-002 1.0360219028331463e-001
      -7.7636130478753035e-002 3.6275012687829435e-002
      7.9735436718431155e-002 2.9116152901417235e-002
      -1.4229125819126750e-002 -2.4625468238118009e-002
      1.8321714432352056e-002 9.7419102775277655e-002
      3.6496403547124100e-002 -7.1977764388469506e-002
      1.6159324298822139e-001 7.0084759161584104e-002
      2.9628304855037681e-002 1.0167793668644624e-001
      -1.8375869625074096e-002 1.2125332057165423e-002
      3.0076594182065160e-002 1.9782592161745755e-001
      -3.2438685877911994e-001 -2.4504104945581667e-002
      -2.0358874294312909e-001 -4.5957615129385697e-002
      4.2897739590555400e-002 1.2545480750011768e-004
      -9.9635170578625712e-002 -4.7736906412388170e-003
      -1.7289252957142709e-001 4.5829478790469905e-002
      -6.1479891493342924e-002 5.4125110694237206e-002
      9.2274310734004231e-002 -9.3708102508515176e-002
      -2.5258793600341630e-003 8.7847616820400071e-002
      7.1078477778567170e-002 -4.3685429161934207e-002
      6.7010809040672512e-002 8.3708555431913703e-003
      -1.1616807604965550e-001 1.5329793292834668e-001
      1.1002994770004804e-001 -3.5544990607391858e-002
      -7.5962496838486868e-002 -3.0522910170306391e-002
      -1.3122506731490546e-001 1.0629118748014103e-001
      -3.0213053373414341e-002 -1.4567713490232556e-001
      -7.9906791168279174e-004 3.1280176226300874e-002
      -4.4050827479573854e-002 -2.4600213291607345e-002
      -2.1578078107095285e-002 5.0547235521000225e-002
      -1.6308956355270431e-002 -2.0169164793387834e-002
      -8.3823386188756399e-002 -3.5176450149601329e-002
      -3.2826664911540231e-002 -3.5203361120761022e-002
      -1.4609098560991096e-001 4.3039603231621273e-002
      -7.0491988626432897e-002 4.8629433163455754e-003
      1.6787881985665373e-001 3.3604522566232663e-002
      4.9962595960716793e-003 4.1381907415285579e-002
      -7.3902076439555681e-002 -9.7210914715992872e-002
      5.1169314552283782e-002 -9.5692232664493851e-002
      -2.1327552334354356e-002 8.1421152925018447e-002
      -4.7024569436759098e-003 4.2514710383599261e-002
      2.5237463114943116e-002 1.3225305416007754e-001
      4.4522821805358263e-002 3.5894482614595188e-003
      -1.4296452850395448e-002 8.7638214901681971e-002
      -8.7731812798378134e-002 -1.9815269236421733e-002
      -5.5894179871171868e-003 -5.2397316919124692e-005
      -3.0360842617121930e-001 2.9554598165603005e-002
      1.0385471202407592e-001 9.0199164465732284e-002
      1.0274800587662768e-001 4.2610869200044414e-002
      1.2091706092984190e-001 1.3866709243261782e-001
      3.8889408899955763e-001 1.0251625117195716e-001
      -6.0676914481735775e-002 7.4102250935099867e-002
      -1.5487640093585309e-001 -1.5019630725137100e-002
      -3.3452160379382888e-002 5.4553223721905358e-004
      1.3546592486716050e-001 3.2828875332984605e-003
      -4.0352792582175105e-002 4.7979181400476627e-002
      9.2403361204765111e-002 4.6649648398089223e-002
      9.2664584697619429e-002 4.5167539152360894e-002
      2.0524503587408375e-002 2.7563905371631076e-002
      -1.5765057938715402e-001 8.8399614746914310e-002
      4.9403788937995796e-002 -2.0387467114244764e-001
      -2.0812433469662348e-001 2.2447263349139235e-001
      -4.0839183612424584e-003 2.6331951787727157e-002
      3.8167589522162378e-002 -2.7191033995606767e-003
      3.0543609200157151e-002 -8.0483596958606587e-003
      -1.8100139957094405e-002 2.8316386313656135e-002
      -9.4608485306921675e-002 3.9393179110765841e-002
      -6.6484580266691795e-002 -1.0382223224684775e-002
      1.1848492945164529e-001 -7.8752511285874557e-002
      -5.4450482739944100e-002 -9.3321302215353119e-003
      -6.3673566509259247e-002 3.0904113027164729e-002
      8.6093127068914421e-002 -1.2154948713081483e-001
      9.7690279554250456e-002 1.7788202640728581e-001
      -2.6818062680325411e-002 1.6853861431902664e-002
      -9.5498584767623365e-002 -8.6353828359139698e-002
      1.9057111111888417e-001 -1.1668201330704375e-001
      2.0289449289598326e-002 -1.1494150303937437e-001
      -7.3327007234695665e-003 -6.3583829009119089e-002
      1.0243429684151592e-001 1.1668405866198459e-001
      -2.1288182569740258e-001 9.9579015967204254e-002
      -2.3170529740282855e-002 8.5797433244129542e-002
      3.5420088258598853e-002 4.1120625836882450e-003
      2.4665997372703055e-001 -1.2200914939586487e-001
      -7.9247732276386304e-002 1.5493448054130149e-001
      -4.7029710913261476e-002 1.7969845588392688e-001
      -5.4887602090192340e-002 -5.8727410825590319e-002
      -2.1530331817674862e-002 8.7811082084365166e-002
      1.2712593293918104e-001 -4.0465660820848667e-002
      -1.6596922452053747e-001 -5.4908876925787435e-002
      -1.9997060300512827e-002 -1.6517553200587962e-001
      -5.5299895362206739e-002 -3.1214025170621923e-001
      -2.9819165493994399e-002 2.1747673747346378e-002
      -9.2366772708136480e-002 2.7759562182524559e-002
      -1.9474876155520387e-002 1.7456635765717984e-002
      -6.5994658145721793e-002 9.1155245436046847e-002
      -1.0143529280693579e-001 9.7217302945880844e-003
      -8.6738092480093884e-002 -1.0556276565882834e-002
      -1.5136510281975992e-002 3.1640609298945209e-002
      -6.5091930455106736e-002 -5.4525486437809967e-002
      1.9155228983931949e-001 1.8180374105356364e-001
      -4.2180901108678434e-002 -4.3062423802493949e-002
      6.8162891057106628e-002 -2.4449927434476143e-001
      -1.5475606292676736e-002 4.3880696536875700e-002
      2.9348009070274246e-002 -7.9607544394980953e-002
      2.5993628740190251e-003 6.5760556779512841e-002
      -1.1383798626460581e-001 -4.5657301191142349e-002
      3.2920034997082577e-002 6.8217688687504385e-002
      -2.6251380367443615e-002 2.0321727782497997e-001
      -8.1167157222399838e-002 -2.8052653013646282e-002
      3.9331435528830505e-002 -1.8472802008319973e-002
      -4.0536544457049284e-001 5.0343004359278951e-002
      1.9963047185786859e-001 -2.0368921512221527e-002
      -1.9255777740792748e-002 2.2757801708342910e-002
      2.4156216561391786e-001 -1.6791217313496012e-001
      1.1770850385502223e-001 5.1763106150860973e-002
      1.7019627955635519e-003 1.4592409074846290e-002
      -1.5651614601265004e-001 -1.3431538436820890e-004
      3.2768854151388221e-002 9.9378090334261870e-002
      5.9739272443236104e-002 -1.2333569930556751e-001
      -4.7134752960141989e-002 3.7982623725246807e-002
      3.9165368924704153e-003 -1.4749792188633257e-001
      1.0127659992200366e-001 -3.8538414607492875e-002
      2.4448905975165559e-002 -2.3945682200899751e-002
      -8.1539208398093074e-002 -6.1725221675201648e-002
      1.4835080689404168e-002 -2.2325401981742518e-001
      -1.0488185010331069e-001 1.1660608687784130e-001
      1.2484010044506302e-002 2.0689148057620438e-001
      5.6445859855664596e-002 1.8883015762205340e-002
      3.0347198888545642e-002 4.4130675172785169e-002
      -1.1495739866208127e-001 -4.2553879719694496e-003
      -2.2472767674696758e-002 5.0309033008773766e-003
      -2.5152773137502443e-003 1.8593912773444049e-002
      2.0480607027292683e-002 -7.0956192971569368e-002
      -5.2497920468377299e-002 -9.9539443929124814e-003
      -3.8600296769600653e-002 4.5103492518004090e-003
      -1.2110950809868846e-002 -1.0443772201941734e-001
      -2.1938067656403382e-002 1.7862973847526654e-002
      -2.9251354632420606e-002 -8.6491122262044154e-002
      -5.3708680421498942e-002 -4.5554127092433422e-002
      -7.9485794151415434e-004 -2.4516277173483569e-001
      -2.7951847220304404e-001 -6.6245926593954101e-003
      -3.2900155379063656e-002 1.2568558715087292e-002
      7.4079890966904427e-002 6.0058719540738090e-002
      -1.6776801875586553e-001 -6.2753429828249939e-003
      -1.9439129546166126e-002 2.1043260421891471e-002
      3.4265501883279240e-003 -1.0651526863461874e-001
      9.2498106300221886e-002 1.4038310601313619e-001
      -7.3383977836460307e-002 9.5474703080466003e-002
      2.4659951161583458e-002 6.1323022040327982e-002
      -3.1498557317690454e-002 -7.5398299350882811e-002
      1.6377855281512699e-002 2.3259172682033095e-002
      -1.5964511405375062e-001 1.2543009118417710e-002
      -6.7566087191243213e-002 -8.0333892086853181e-002
      -1.2015197156413007e-001 -2.0793395377984744e-001
      -8.6208645623603780e-002 -2.7460409800593527e-001
      3.8222587652240591e-004 -4.9338856263628619e-002
      -2.2885043496525346e-002 5.3511686057981289e-002
      1.9172229098346504e-002 -8.3398103521685585e-002
      -2.5322424801279816e-002 5.7031872096764163e-002
      -3.5947142938833346e-002 -2.3778401100347631e-002
      -1.0312242325884960e-001 5.3286370103348218e-002
      -8.3473575974493675e-002 -6.6135446449907848e-002
      -5.3728501390206816e-002 1.1760875013178780e-002
      1.2926057892955636e-001 8.4080645619505623e-002
      -7.7136529829473277e-002 -4.3178864023552394e-002
      1.0349533921182083e-001 -1.6702463096828682e-001
      8.6782285776750585e-003 7.8277154349614929e-003
      7.9996235022810440e-003 -2.5395409187607357e-002
      5.5427084249870605e-002 5.0082991489205683e-002
      2.1564712003926696e-002 -1.5062756092982799e-001
      4.9632156636482412e-002 6.0585005427494912e-002
      6.2867902556967573e-002 1.1447557471254885e-001
      -8.0376257959052788e-002 5.8967037330733309e-002
      -1.7938473420837087e-002 -4.0479345186721104e-002
      -2.6150840631565020e-001 -1.2275280390975733e-001
      -1.4500896786821313e-001 -8.3931255832925017e-002
      9.6519557245132517e-003 -6.3926283291347178e-003
      -4.8800085022743585e-002 -3.3112584383442856e-001
      1.8380794502229730e-001 1.5445320216662445e-001
      1.0560394783895161e-002 -7.1545422905843143e-003
      -2.8251573449991478e-003 -9.4780310221461703e-002
      -2.7337213298272461e-002 -6.6559383441906816e-002
      -7.7030721413145278e-002 2.4256998948277964e-001
      -3.3256768266005987e-002 3.0456516618497471e-002
      1.1284234245065359e-002 2.7360966470120995e-001
      -1.0125629535991297e-002 -2.5905543349603627e-002
      5.4835236674681681e-002 1.7446636609450738e-002
      -3.0020345129285045e-002 1.4428250271129231e-001
      2.4391741900042289e-002 -1.4536840970806092e-001
      8.2504047629532000e-003 -1.1525098354756610e-001
      -2.8726204342017910e-003 -2.9191656044689533e-002
      -7.5728788972926037e-002 1.8234968957941658e-003
      3.9944131868981804e-002 2.6983803928005267e-002
      2.2692991153579270e-002 -3.2989016549794643e-002
      -1.4952327005392924e-001 2.3913213068075923e-002
      -1.3249628752013284e-001 -1.1468836936515422e-002
      6.1026310386273881e-002 -1.6449103018087871e-001
      -1.2775434774530989e-001 7.1119400306224531e-002
      -1.4032083805243875e-001 3.2241015715507282e-001
      -5.2298498594959561e-003 -1.1594136447605326e-002
      -6.0919643033110038e-002 -1.3234908554760373e-002
      -1.3560279119411353e-001 -1.7226168956605972e-002
      1.1607853793117968e-001 -4.7942088582801787e-002
      2.1014488818381871e-001 4.1322267229435350e-003
      -1.5242177813571811e-001 4.2956438003997080e-002
      -1.5631152970843876e-002 7.3179493375627902e-002
      2.6449252774681322e-002 -7.2483115732872139e-002
      -8.6788934126780390e-002 -2.6147545655132370e-002
      8.9905321999173823e-002 4.5283020589786852e-002
      1.1307894426731044e-001 1.8671183182378027e-002
      2.7266905437936406e-001 -7.7062367379903046e-002
      1.7168655048762900e-003 3.2687139214153654e-001
      -1.7631033163572957e-001 1.6084822643325936e-001
      -7.2276057726321341e-002 4.9276868049871442e-002
      1.2920058914758761e-001 -8.2490613164273113e-002
      -1.1862455556393703e-001 -1.7616179127807924e-001
      1.0004959451116668e-001 -1.6994382956491902e-001
      1.9135441735222658e-001 7.9408564287489616e-002
      -2.1622947768395864e-002 -9.1202325665339229e-002
      6.6252867942335952e-002 -1.3534803046898661e-001
      1.3386759158112957e-002 -6.4419284632859022e-002
      1.2027086521332486e-001 2.9406892872916564e-003
      -1.0562653925207964e-001 -2.3797761474608270e-002
      7.8107537254940998e-003 5.7432007456691990e-002
      4.3758358678550359e-002 7.0574683012615672e-002
      -2.5112791226015809e-002 -9.0637424252478730e-003
      -1.4345914236920221e-001 -4.7326978500261567e-002
      1.2907620957484647e-001 2.2709489611158076e-001
      -1.1978793738413211e-001 1.5455206991569762e-001
      1.0172375532967373e-001 -2.0723358556664248e-001
      9.4274402760544815e-002 -3.5852101049536983e-002
      4.3295140090325507e-002 -1.2079212434800932e-001
      -1.0802517152358432e-001 -2.4100410395975113e-002
      -4.5343511882970998e-002 -3.9858717366342715e-002
      -4.8775404836415751e-002 4.4112122020868054e-002
      3.3152194140546772e-002 9.1923127440341878e-003
      6.3277808071710920e-002 1.4183603467695500e-002
      -7.3546826887737268e-003 -7.1872438682959838e-002
      3.0958761603877100e-001 4.5142756682126760e-003
      -1.4587290849947693e-002 8.7293827113547554e-003
      -6.9559668383377266e-003 -2.8493869199554593e-002
      1.9592185534932136e-001 -7.0025771567460246e-002
      -2.0768209502416435e-001 7.5849098195349032e-002
      -3.2676861462131217e-002 5.5940823584839060e-002
      4.0959063518577338e-002 5.0006596313382487e-002
      4.5948385689880619e-002 -8.2285225253337480e-002
      3.4361403779281430e-002 -8.7466494864038541e-002
      9.8773135166751111e-002 3.6674294974622511e-002
      3.0313635186445389e-002 -2.7171660504054118e-001
      -4.1926042168388321e-002 3.5376575099201946e-002
      4.5018064249374483e-002 -2.5960322716840904e-002
      9.9585572370874134e-002 7.3077482649871503e-002
      -9.5524306489896908e-003 -1.1890808962495573e-001
      -7.8400002067544536e-003 -1.4626317049599163e-001
      6.5355773211596316e-002 -5.9499088409850492e-002
      -7.5466365669291128e-003 5.6997712702671927e-002
      -4.5859456871307110e-003 -4.0311306154637704e-002
      -3.4245020129414494e-002 3.4546480501891512e-002
      -2.0839850033879545e-001 6.5973835154679271e-003
      -3.0943059951657179e-002 -7.5692698259285110e-002
      7.2837136450451881e-003 1.2751564350821953e-002
      -8.5926808702439544e-002 -1.0736004440881616e-002
      -1.0897524980419093e-001 1.0200354546183400e-001
      -4.9165729034541805e-002 -2.0282347537498014e-002
      -6.3496643048735826e-002 1.1173907198282391e-002
      2.6973568818681150e-002 -6.0210758118274317e-002
      4.3662582576115182e-002 8.3270214746574978e-002
      2.7639308095857795e-002 9.5638044032698960e-002
      -2.0254991248638082e-001 -1.2736096701184321e-002
      -3.4004862255679655e-002 -5.5830362971697939e-002
      -1.2057676475983112e-002 1.0838571561802417e-002
      1.3875152567852458e-002 1.6215774762859864e-001
      8.9697911427094004e-002 -6.5266194849815237e-003
      2.1132861593338432e-003 -1.4992512768841937e-001
      1.1697433265171819e-001 -1.1295444538113301e-001
      1.0894575502571984e-002 9.5474250374806332e-003
      1.3840937570986703e-001 2.5564297205415632e-002
      -4.3509212775148035e-003 -3.4313875672967259e-002
      1.4070968153853353e-002 -6.0746394924550702e-002
      5.0136893139381175e-002 7.1210810667421520e-002
      -6.1334868631982307e-002 -1.6369511946804912e-002
      -6.6968734277242550e-002 8.5559193215138496e-002
      2.2361183493281277e-002 1.1821107418476362e-001
      2.6255112364708472e-002 -7.3543799560617920e-002
      -9.8103886526614281e-003 4.6463524870881727e-002
      -3.0500401111915522e-002 3.6499790646017327e-002
      -4.5208700682542763e-002 1.2940945395474661e-002
      3.3996451626131116e-002 3.8267562125436250e-002
      5.8147930281505583e-002 -8.0852758386073097e-003
      1.2574141319957829e-001 -3.1714352646462905e-002
      9.0290844751858959e-002 -1.6106842042458913e-001
      1.5143199458365533e-001 6.9849558454564642e-002
      9.1928217981458352e-002 2.3321234450586517e-001
      -5.3407309399379772e-002 -4.4171353505255931e-002
      -4.3536928223820846e-002 -1.8911254479586002e-002
      5.5340007945090024e-002 -4.5953889760096567e-002
      -7.7292483238095289e-002 9.2867937911561921e-002
      1.8723071207706984e-002 1.6506305641579753e-002
      4.3854111097933060e-003 -1.6964813828992953e-002
      -2.7535792419516921e-002 -5.4162128854391665e-002
      1.3313905914318741e-001 6.9843420069105169e-002
      -3.2739193466757084e-002 6.3879168268587402e-002
      1.0831355950951176e-001 1.3875528749536889e-002
      -7.0558937376140968e-002 1.7859530443781167e-002
      3.7025171181969137e-002 -3.8844203581560405e-002
      -2.3573924417580876e-002 5.7050896771384564e-002
      -1.4679230859474329e-001 3.5287551744159706e-002
      4.7276594869644362e-002 4.9707453972468833e-002
      1.0448076756063818e-001 8.0565597887879994e-002
      2.4848256789318554e-002 -7.7013411534274337e-002
      4.3597811028603974e-002 -3.9232609968661299e-002
      1.5630650550205102e-001 1.4790465826509412e-002
      -6.0606193363921451e-002 -1.9184169165573006e-001
      -1.2313369624754941e-001 4.4879112894198714e-002
      -1.2833519994465409e-002 -4.7154126378078157e-002
      7.9707489236517534e-002 1.4916179867833426e-001
      9.8235787450073730e-003 7.2040926229470148e-003
      -1.4018144093794545e-002 5.8127682150021856e-002
      -4.2766922586447188e-002 -1.6784775458561782e-001
      8.4378053243502366e-002 -1.1864499540895022e-002
      1.7931934101391319e-003 -2.1883357095065753e-002
      1.5627057434641198e-002 5.8320339544745393e-002
      -2.3520578138332415e-001 -9.1779059849034395e-002
      2.1357783452733283e-002 -1.1944696448043107e-001
      -6.6896389851834742e-002 4.6688160939682484e-002
      -1.2150604197714421e-001 -8.6967727249375008e-003
      5.8879641369589336e-003 2.0691502880349849e-001
      1.5516644030769383e-002 3.6814106947759113e-002
      -4.6432047456256773e-003 2.2608126258393306e-002
      1.0474090291780722e-001 -1.2125692895184402e-001
      8.3570757139748444e-002 6.2255530672313382e-002
      7.5205101396172619e-002 -2.5275698742541669e-001
      1.3522491613293791e-001 2.5159360249527155e-003
      7.3188191183600829e-002 1.2271285995513512e-002
      4.0674654155001745e-002 -1.0353070861412289e-002
      7.8667676927918956e-002 1.1923266219945521e-001
      1.1606819827211620e-001 -1.7299678673098055e-002
      -4.8873424321701261e-002 4.2844795487553752e-002
      1.3322790389556380e-001 -3.8123121550606417e-002
      8.6839738936571154e-002 -7.6669452180450015e-002
      1.1793487763845942e-001 3.5444112295377650e-003
      -2.9277319228829674e-002 5.3328004201868173e-002
      -3.5476926840413078e-002 -1.2871531392850910e-001
      8.3076988769295326e-002 6.2819597108302511e-002
      -6.7654698187102361e-002 -9.5275147733321196e-003
      -2.2427568742670378e-002 1.3992701041858502e-001
      5.3190466650891721e-002 7.8215487281160193e-002
      -5.4659082411186985e-002 -5.4847769728290550e-002
      -2.1537078843408226e-002 3.5750436384968561e-002
      2.8816613539628742e-002 -1.0639908828054200e-002
      -1.2834236163999764e-002 3.7650880418765159e-002
      8.6089092154236421e-002 1.0305368232315248e-001
      3.4945243902778998e-002 7.0267764859936993e-002
      2.1827485557605522e-001 3.4345785775072436e-003
      4.6123314682337116e-002 -1.0256782810275630e-001
      -8.0166142564804619e-003 1.3104618713447463e-001
      7.4966748222650939e-002 3.3855463708840278e-001
      -7.5913237302858316e-002 -2.0110112219229256e-001
      -1.8590437539796816e-002 3.7404728297474162e-002
      5.9500296467776981e-003 8.1977107190121063e-004
      -3.3987606194932282e-002 2.4567395814586456e-002
      3.4237088299954296e-002 1.6830600965721232e-001
      -9.4104800389031198e-002 -7.5552537185757440e-002
      -4.9723845570506997e-003 -7.6665076528756357e-002
      1.4867992579556555e-001 3.0287687090245156e-002
      -2.3471945203129622e-002 9.4584347750676909e-002
      2.2171105800093319e-001 -3.2698093284986014e-003
      1.7462886295221589e-001 -6.2394802884847653e-002
      -7.6682374964158764e-002 1.2929933400567476e-002
      -1.6433109771550679e-002 1.4836892908932908e-001
      -1.2723150052287138e-001 -9.4258866495437368e-002
      1.8837859957176257e-002 -2.2007928893216198e-002
      7.2286878369451857e-002 -1.1366916644928332e-001
      -5.0268874749635456e-002 -6.7286209446506720e-002
      4.8529235099606216e-002 -3.8544094833660468e-002
      1.0871884891568905e-001 3.5729280146726800e-002
      -9.4920101219080996e-002 2.2505648876251512e-002
      7.6697627826945197e-002 1.1645115516652667e-001
      1.1375427619517863e-002 -1.6231046459228817e-002
      6.4287645859134088e-002 7.2137167327825949e-002
      1.2247175243190788e-002 8.0425933849486535e-003
      -4.0699456421630288e-002 -6.1807963945685836e-002
      1.4947339177647390e-002 -6.4959975457319186e-002
      -9.4634747418011200e-004 8.8798671894663780e-003
      2.0456939195087425e-003 -1.8217811191406394e-001
      7.6973012729288776e-002 9.5904455566906532e-003
      7.9731906000367628e-002 -1.4282690028790707e-002
      -5.9027749481100733e-002 -1.7196526522473943e-002
      -7.4760301737235454e-002 -3.2889471412495326e-002
      -1.0205989416317021e-001 1.2761156308511335e-002
      3.6944477583759648e-002 9.5243886113408113e-003
      5.4937445120180756e-002 -1.4082749484056392e-001
      2.1327392357995915e-002 7.1571686486523914e-002
      -9.9434280292352642e-002 2.6775593825107327e-002
      1.3299579091778771e-001 1.2192516126715125e-002
      2.1965834773591125e-002 -3.3784884193990966e-001
      -2.0870931152006036e-001 3.5498121406768210e-002
      1.3464708669990949e-001 -2.7882517252392387e-002
      1.2253965247611718e-002 6.1194359221741317e-003
      3.5595753161388070e-002 1.0039139911557511e-001
      -5.8882328163042723e-002 3.0053827770788365e-002
      2.8724984474428651e-002 3.4457129394000176e-002
      -7.1388863018810686e-002 -1.7952565251321811e-001
      2.5497252606482654e-002 7.4645226024849234e-004
      7.8543611503568686e-002 -1.2373616817080624e-001
      -5.3592587833758872e-002 -2.4489527885018469e-002
      3.0166981329906646e-002 3.2393557593214363e-002
      -8.4851513586302205e-002 -1.5358376381991546e-002
      -6.7933646137306153e-002 1.2122927589360417e-001
      5.4763464824752167e-002 1.0900206594476312e-001
      3.1812302876040366e-002 1.5581008629354698e-001
      7.0417194707724701e-002 -1.3578758577408156e-002
      -2.7276164494905129e-002 -7.8455726986235517e-003
      2.7179288078919749e-002 7.4541052074205680e-002
      3.2579533377521015e-002 -1.8691059078808629e-002
      3.1971563503111082e-002 1.4679225017384327e-002
      2.8640056403374622e-002 -5.9732781772836238e-002
      -3.9809910199999562e-002 1.2568267757808166e-002
      1.5695086621351403e-001 -1.2701836652951096e-001
      -1.1466887997269385e-002 -4.8029369774950474e-002
      6.3059573705499111e-002 1.5634372146133937e-001
      -1.1831092501242504e-001 2.2977341239529364e-001
      5.6918849737638506e-002 3.3033515394514240e-003
      1.2054365559183626e-003 -8.8097129257604267e-002
      3.0984254164142914e-002 -8.2267781190629691e-002
      -2.0293050655580687e-002 1.4357737601307169e-001
      -6.0202330407805607e-002 2.6107302164393897e-002
      4.6335853838751669e-002 -6.5536452296866721e-002
      1.7219776741224182e-002 -2.1561872363828649e-001
      -7.2551819956534050e-002 -3.8719285871676903e-002
      9.0813487318296277e-002 4.6002261825766617e-002
      2.1271585323816039e-002 -1.1808147028132888e-001
      -2.5682682988523342e-001 -6.4616207900978315e-002
      -3.8891627843114701e-002 3.8328719539747413e-001
      -7.9120549612469088e-002 -2.0103245813601199e-002
      4.4430905901364406e-002 1.1424421807619328e-001
      1.1558430496046880e-001 -8.9441354709786702e-002
      -6.2725801391772126e-002 1.0305621870794063e-002
      -1.9764368730050604e-002 3.2280116597809771e-002
      5.4028182536239477e-002 4.8501519264364960e-002
      -3.9763778427337443e-002 -1.8396087744691961e-001
      2.2836852093778962e-001 8.4190547928503515e-002
      2.5235718765926349e-003 -7.2816241440051416e-003
      -2.2900536579522970e-002 -5.1783881273946612e-002
      -6.7119560656624652e-002 3.0425740684354115e-002
      -3.4728684774250611e-002 2.3196000829305816e-002
      -2.4110849201106760e-002 -7.7533017955222702e-002
      -3.9988947740833024e-002 -2.7305478057969644e-002
      1.3123242595582230e-001 -2.0553844647606484e-001
      -7.4892829508819203e-002 -3.9710326037759210e-002
      3.5267210538384240e-002 -7.4609842109456537e-002
      3.6031085206773922e-002 2.9169149446180740e-002
      6.7478308271152809e-002 -3.8106580924188040e-002
      4.1350796711465037e-003 8.8369560087173549e-003
      9.1312783549255705e-002 -2.3511358398467308e-001
      -1.2717779229957647e-002 -2.1379944149126359e-001
      1.1168218447484597e-001 2.3262482505835857e-002
      6.5962931985629053e-002 8.8674075910170819e-002
      1.0465108395275445e-001 1.1260746442860507e-002
      1.7816109418164788e-002 -2.4062840771993141e-001
      -1.2537165224454838e-001 -6.3734916310454220e-002
      -5.3722052287362550e-002 -1.5195850053419176e-002
      1.4142063421997851e-002 4.8769034740200085e-002
      -2.2006720491551716e-003 7.3193280591859394e-002
      -1.0326282998864716e-001 6.1563541551926955e-002
      -4.4204331040405546e-002 6.6165286478986576e-002
      -1.1216194804562361e-001 -1.9735652323691402e-001
      2.9554132741952989e-002 -4.7214305031716537e-002
      -1.4614475955416689e-001 -2.0836016596593099e-001
      7.2030596309475572e-002 6.4176292212144243e-002
      -1.1634876471163525e-002 7.6495635588070779e-002
      1.0203301940896231e-001 7.1051995029915039e-003
      -5.8841140721636355e-002 3.2413141540879271e-002
      -2.0730306317319813e-002 -3.3909949955647015e-002
      4.2744459559222075e-004 -1.3121194007727020e-002
      3.3809231865390019e-002 3.0542832048769543e-002
      -3.1205599572198740e-002 -5.8087376407678304e-002
      8.4955059279997025e-002 1.0091557327501886e-001
      -3.9943652305484342e-002 -5.5522929773906184e-003
      -3.3955827537158659e-002 4.3648568839693987e-002
      4.5257403405275287e-002 -6.0162673164062846e-002
      -3.4493954139360095e-001 1.2295695633055267e-002
      9.0522045031196444e-002 -5.7996173542006195e-002
      -1.4549889216102205e-002 -8.3271254909905876e-002
      9.6397095866536484e-002 -1.0886141677653664e-001
      -7.9848816475766554e-002 9.1215886610285554e-002
      2.5470931053535734e-001 -5.7571252830299513e-002
      7.1590645594874408e-002 -1.5603096824399074e-002
      -4.0138772410428340e-002 7.6572347068157659e-002
      4.5984029722938503e-002 1.5156040671927493e-001
      -6.7907706173379520e-004 -3.4207465766498642e-002
      2.8559396891654848e-002 -5.3701105288226914e-002
      -2.7290842515283985e-002 -4.2066649952925483e-001
      -2.3569097944484346e-002 -9.1610803592455992e-002
      2.2155771665975646e-001 1.2615957114074790e-002
      -2.5730008164456708e-001 7.5721864005087791e-002
      6.3860262740433271e-002 6.2578132681191598e-003
      -1.6131273338805954e-001 1.7336173609978209e-001
      1.0908777332338869e-001 8.3023030061721181e-002
      4.2524990299837494e-002 4.4114542506192341e-003
      4.2922961352467315e-002 2.5744464564272759e-002
      1.6754120629957261e-002 -9.3844722361808700e-002
      3.9622576042545189e-002 -6.1393894545766867e-002
      8.8640994796941833e-002 7.2289096106362791e-002
      4.0084220643466228e-002 -2.1137864480821056e-002
      -1.0337352597350326e-001 5.6108047657552521e-002
      -1.7218094461008672e-002 2.4236178020513355e-002
      -4.0879033095383169e-002 2.9036721485301087e-003
      7.3702281962252883e-002 7.9128625304572264e-003
      -7.3029394485608967e-002 -3.6545873023609704e-002
      -6.5454270738420389e-002 -2.1151351915451655e-001
      3.0974246765966097e-002 -2.3307545083893221e-002
      5.2820444982228230e-002 -7.4620906924557695e-002
      2.6508745422225789e-002 8.2366655479555653e-003
      -6.9085608468889045e-002 9.9611080614461833e-002
      1.7462497108561376e-002 -5.3090003838701157e-003
      3.6028025516058083e-002 1.3199229882639588e-002
      -1.3644217099417438e-001 -1.2672543409390934e-002
      -1.7244371654452931e-002 -2.7293709063505511e-001
      2.8971277364995121e-002 -1.4705363819527217e-001
      7.5045891333157852e-002 -6.8492262130719253e-002
      -8.9662001779784121e-003 -5.6861078984958055e-002
      4.8548663533090715e-003 -1.0618035472666264e-001
      1.3169407005297665e-001 -1.9735775489885587e-001
      5.3431741500813222e-002 3.1046131051614692e-004
      1.6194234563848586e-001 -2.7912827428364612e-002
      9.2216267191606124e-002 -3.2808819292408822e-002
      -8.0674569767142171e-002 1.0578509021012394e-001
      6.0180422452598165e-002 -1.3857738620930491e-002
      -6.8482627446061267e-003 -1.2899121890122919e-001
      -4.8871282004462294e-002 3.8809296509112752e-002
      3.8519416785986318e-002 1.9018668182483070e-001
      9.2819587627811936e-002 1.1953485497689043e-001
      -1.5062187834907058e-002 7.2468195309965955e-003
      -1.0408321751043684e-002 5.5652913816325728e-003
      1.0687764750775799e-001 -9.1721044500185662e-003
      -2.4262801940392657e-002 -4.4462372844090783e-002
      -2.6514131666089919e-002 1.2775901471911497e-001
      1.7663101678336925e-002 2.2730443026870520e-001
      -5.7422837526301743e-003 3.0209201161525073e-002
      -5.4763315123225555e-002 -9.4545958893206383e-002
      6.5012959128287945e-002 -7.8232119314657397e-003
      -4.6953263616873499e-002 -7.4243421338000118e-002
      9.0131070660848082e-004 6.0172929276169115e-002
      8.0975743831020436e-002 4.7358004509171152e-002
      4.3569808549314047e-002 8.5327628015857651e-002
      1.7928448945087508e-002 -1.4396881962931105e-001
      6.5311408966850934e-002 -2.5337926914319169e-002
      3.1862201616527537e-002 -2.9418149062130892e-002
      1.9784078154070447e-002 1.3169184061769240e-001
      -1.3743071253467723e-001 1.7572796154128802e-002
      -3.7619868065690309e-003 -5.2798539276418255e-002
      1.1601599322063045e-002 1.9402686848338521e-001
      -7.1561143245509024e-002 1.6146607215169104e-001
      -6.2513393460167113e-002 -3.9575934259206712e-002
      3.6544991245468901e-002 -3.5025980237073463e-002
      1.6745105682190065e-002 4.0806022702703906e-002
      -3.4830705937023379e-002 -7.3852019015811718e-002
      -2.3006456633039812e-001 -3.0458313823840660e-002
      -8.0406683105412061e-002 -3.2319391789936029e-002
      -9.5025847031299463e-003 -1.9157579387425516e-002
      -2.0618279388801983e-001 1.0763268109355503e-001
      -4.6813646619170618e-002 -1.9787366780428681e-002
      3.0914136936815911e-002 9.2845844047324561e-003
      2.4937417730125790e-002 6.1095172795341893e-002
      3.0055994878602076e-002 6.8567323125891269e-002
      -1.6549570003797771e-002 -4.5988048005901720e-002
      2.3485181796902413e-002 2.8164405240089823e-002
      -4.0322221862979714e-002 -3.1182228008451607e-001
      5.2976107621719552e-003 3.0282265352545159e-002
      -1.8653495974133447e-002 -1.5615231703544805e-003
      1.1200038198905994e-001 -5.0210684614919676e-002
      1.3965774903595012e-002 5.7552735891492741e-002
      -4.9950088955816258e-003 -4.1151291081923363e-002
      -3.3126722667921264e-002 3.4273990768106423e-002
      5.2712035071542118e-004 1.8599337127645305e-002
      1.6705448276091123e-002 -3.7484125650151953e-002
      -8.1905338536415323e-002 3.2474569583455487e-002
      -3.2406131759881787e-002 1.0437994244108334e-001
      5.4480149970582974e-002 -1.3317088984188997e-002
      4.0890231668537363e-003 -5.8575871017722278e-003
      -9.9247223572775420e-002 2.4876176144578741e-002
      -2.1666900138150622e-002 -4.2373115785406583e-002
      -3.2386435205973965e-002 -1.1069122399624060e-001
      -9.6074568424873802e-002 -1.3023529850321797e-001
      8.9007279776018196e-003 -6.2960586405135993e-002
      -8.3880414159038120e-003 -3.9181245931658261e-002
      2.5044064323708405e-002 -6.9499759295368040e-003
      1.8198434258761600e-001 2.4845159179843663e-002
      2.4455626883743412e-001 3.1571632988730600e-002
      6.5848707972794421e-002 -6.6772925347205678e-002
      2.2436418505536022e-002 2.2465726374814254e-002
      -3.6973003861909214e-003 -3.0039339968062198e-002
      1.3472039449441569e-002 2.0073626219783775e-002
      1.2265443371973221e-001 2.4429976058310540e-001
      -3.2318573620487803e-002 -1.1893323799961762e-001
      5.3435690814296707e-002 2.3384921717499514e-002
      -4.8750976695761769e-002 -3.9438500440352957e-002
      4.3076602326984535e-002 -1.0132158936850255e-001
      -1.1113127567375616e-001 -5.5247356957484929e-002
      5.0950944421327853e-002 -1.3569678189584444e-001
      -1.1551373704883346e-002 -2.3400632335308431e-002
      1.6940866378745940e-002 1.1454305575371293e-001
      6.3652008370275884e-003 -8.8487752567793614e-003
      -1.2973627983704883e-002 8.7381717186457517e-003
      4.3069863557808667e-002 -5.4166383731127705e-002
      -4.7959479549483361e-002 -2.8362422269702176e-002
      -7.9345779372579188e-003 1.4480797047143812e-002
      2.8911492680466579e-002 5.4645237419709843e-002
      1.2251538757916576e-001 1.0568614740194252e-002
      -5.7787022358652303e-002 -6.6191532840831221e-002
      -5.6716049103911932e-002 -1.9705422099643113e-002
      6.4265469122404842e-002 3.2097564186875170e-002
      5.9093561701723904e-002 1.3860238621076604e-001
      7.6934339196677382e-003 1.9974038110506468e-002
      9.8600045227820732e-003 -3.8239618956770347e-002
      -4.2224575102410622e-002 6.5576778468594388e-002
      -8.3201325485085390e-004 1.8362127810897100e-001
      -2.2071925168204148e-003 4.5376247180684724e-003
      6.6504701030247096e-002 5.0869499004234230e-002
      -2.0447666791340931e-003 5.1512025894589211e-002
      -6.8116407773408617e-003 -4.1088929600933299e-002
      -1.2893785013950451e-001 3.7754478852848709e-002
      -5.2232523921999174e-002 9.5418307732379790e-002
      -1.3194184855416266e-001 -8.0533286443408625e-002
      -1.6072752129302320e-001 2.3655101691106556e-001
      -3.8666257225767658e-001 8.4055477677619270e-002
      6.1056567933572607e-002 -6.3383467827937238e-003
      6.7340823260360477e-002 8.1475386227357810e-002
      3.1628384312481994e-002 -6.3923546627116370e-002
      -4.8981793273235277e-002 -1.7942880755108873e-001
      -4.3482605650176044e-003 -3.7465332248708058e-002
      -4.8118018975662251e-002 -3.3254194146015514e-001
      -1.1912675278120559e-001 8.2315594822854651e-002
      7.4927692992884645e-003 -3.7887905897266504e-002
      2.9274353258523716e-002 6.1063174231119600e-002
      -3.0801276590446507e-003 5.2231206074258053e-002
      1.9488695253064722e-002 3.4124682751073164e-003
      -1.3036546359994153e-001 1.2715270962062675e-001
      2.3334298355906658e-002 2.4670990201468776e-003
      8.4749143595771390e-002 7.5304878403129548e-004
      -1.4487542541137430e-001 4.1394905467266013e-002
      3.8051685587573755e-002 8.6224392721768670e-002
      6.9163796956731236e-002 -8.8946198434047996e-002
      -4.1271653621364609e-003 1.2105636396276752e-001
      -1.5477999057069611e-001 9.4791449412229469e-003
      -2.7908411265017800e-002 1.1181243996953663e-001
      -5.5738730801866213e-002 -7.5251581498650424e-002
      1.6174552494483151e-002 -7.8662168194375215e-002
      4.6487943676703910e-003 1.1361012617514103e-001
      2.2357284726245083e-002 5.5349599274033205e-002
      3.5985061159873294e-002 2.2047227815597755e-002
      -6.1482693176540017e-003 -3.8612713509975763e-002
      -1.3922251002663411e-002 2.1766601444370003e-002
      -8.8179856460048251e-004 -5.3366988579011961e-002
      9.7487512853862590e-002 -8.7205034387965230e-002
      7.7241474516652156e-002 -4.9111653526393982e-002
      -3.1057381864456439e-002 -7.7263742349471781e-002
      2.6100448109633712e-001 7.0306338695015375e-002
      2.3917468537902060e-002 1.9733026923041896e-001
      2.9241377531396030e-002 -5.7004015768018126e-002
      4.6556144707023885e-002 4.6014009073567924e-002
      -5.2476345738002687e-002 -9.9248509540255506e-002
      6.7717184716910489e-002 6.2088969937249938e-002
      1.1158586144611854e-002 -1.5573830018796453e-001
      -1.4201004137912729e-001 1.3014889345501873e-001
      5.9509632232689347e-002 3.1312630934197927e-001
      2.6675196749927056e-002 2.8813773953283330e-004
      -2.3749651935310763e-003 -7.9604725194400514e-003
      3.4757278868132015e-003 1.3137993908145853e-002
      -3.6570622894831470e-002 -2.7702857001866654e-002
      -2.6055280838921304e-003 1.0899247098444746e-001
      6.3775350809821399e-002 4.6052964312455376e-002
      1.5946371596126635e-001 2.7774373762581156e-002
      6.0827054240476401e-002 1.7817095815375891e-001
      -1.0639911638568285e-002 2.0925234912599039e-001
      -2.2083353639322040e-002 -6.4737939414046776e-003
      -1.0077266029144293e-001 1.5444520555706606e-001
      -9.2933183951210613e-002 4.3960839201920773e-003
      3.6383007120130727e-002 8.6225429203718923e-002
      -8.5272754998532166e-002 9.8861853376007613e-002
      4.9466826165134065e-002 1.4128124414588844e-001
      1.8562011208383101e-003 -5.8330652463818751e-002
      -2.8380132864430335e-002 -1.1150691660323336e-001
      9.2849879006835015e-002 5.2416158521175711e-002
      1.8171621600979203e-002 5.7419186946309250e-002
      1.5868581600240686e-001 -5.9576535805693817e-002
      -5.6099430507820090e-002 1.1751318339261377e-001
      1.6355391665570504e-001 -1.9063876631534964e-002
      -3.2699464027629349e-001 6.0490027571603072e-002
      -6.2986246476548824e-002 -8.4600643135638535e-003
      -1.4655965078036393e-001 -1.8860243070865923e-002
      -5.8573241692716251e-003 -9.4656933189132223e-004
      3.5694115440703902e-002 -8.8083486685845688e-002
      -6.5324620868950800e-002 -2.1361055764912890e-001
      -8.8542802704135101e-003 -1.9337023380159492e-002
      4.0459348700213546e-002 1.6847182756220583e-001
      -1.0681526269150306e-001 -7.0368804054776581e-003
      5.2645714414832422e-002 4.8993032825619736e-003
      -3.7498046556257950e-002 -6.2006222444365142e-002
      7.1728224739624924e-002 -2.1655707475280280e-002
      9.2465351215959890e-002 -1.4782659251413879e-001
      -8.8593772825850778e-002 -4.2341885746641217e-002
      -1.1434571105148002e-001 3.5125331240197247e-002
      -6.6090282238983153e-002 6.5028319092073298e-003
      7.9209959469887001e-002 1.8401219866154943e-002
      -7.0959484779619914e-002 4.4763400358141442e-002
      2.4728144055569383e-002 5.6697553656728669e-002
      -1.0903793478759424e-001 4.6235968397548712e-002
      -2.8258799893688256e-002 2.4387917761164363e-002
      -7.0929460995035115e-003 -6.4635363091878284e-002
      -8.0088177864436533e-002 7.9300451674658934e-002
      -5.2037954625896533e-002 -5.1711710590968497e-002
      -9.4940175335117324e-002 4.9765754799662436e-002
      -6.3764658071903041e-002 4.5388504652987181e-002
      -6.8188358876476979e-002 -4.9361076972581339e-002
      1.3636281133832332e-002 4.2613341943699999e-002
      5.5896171380452934e-002 -5.4934809331298870e-003
      -7.8936354503892942e-002 2.3012745570555673e-002
      -1.3368110041206667e-002 -1.0838411464657671e-001
      1.1937349236996789e-001 -4.5648792626611603e-002
      1.3534454262876280e-001 2.0278543040606948e-002
      1.7020137856210155e-001 -3.0600567507799156e-002
      4.0000050839696247e-003 1.3519351779148769e-001
      8.7544953040336552e-003 6.2085447756757180e-002
      1.2868174182792361e-002 1.6123440243793138e-004
      3.2363485079065724e-002 -8.7264503451410028e-003
      -8.1040006291025951e-002 7.4686144815605676e-002
      1.1961433688451417e-001 -1.2624881082226422e-001
      -1.7304374348774760e-002 8.6778764814499643e-002
      1.1203936596788566e-001 3.2711432999479162e-001
      4.3452455246816898e-003 -2.6319688281538724e-002
      2.0766314530404003e-002 -2.2785062347058547e-002
      -5.4023349308905871e-002 -1.5004712649188959e-002
      1.1091191060787141e-002 -2.2285714541256937e-002
      -1.8963010325976973e-002 3.5600886204409966e-002
      5.5195130453131097e-002 -4.5698668756760423e-002
      5.0768298863536461e-002 -4.7312632416364069e-002
      6.8169016814089531e-002 -1.4115925199575248e-002
      -1.1213744199949657e-001 -3.6293264211959241e-002
      -1.0368466019323680e-001 -7.3068548515746096e-002
      8.3580757082776583e-002 -4.8016743044685783e-002
      -9.0706824791324650e-002 -6.2528781349465615e-002
      5.0317360052551607e-002 8.9350460287075301e-002
      -4.3569190028848494e-002 -9.1513212319348017e-003
      2.2912181921360339e-002 5.4121951569464602e-002
      1.3817218345657894e-002 1.1687597672462221e-002
      -6.2629683861905483e-002 -5.4335384522181583e-002
      -1.0028372672424339e-002 -1.1159019977855017e-001
      -9.9951923280796086e-003 2.6401570676573602e-002
      3.4789160404716762e-001 -1.8999663288780114e-002
      4.6199510048645046e-002 1.7589963424406077e-001
      -7.9291853262524383e-003 6.4259964409621492e-002
      -2.3562208723373110e-001 3.0597281177680830e-001
      -3.5753216265375816e-002 5.8871918640116983e-002
      -2.9375292604735176e-001 2.5123942926896826e-003
      -1.4660981613775848e-001 -5.7903535298163528e-002
      6.8390009226990279e-003 -3.7427879912728779e-002
      -5.5420231759134964e-002 6.0143907161383729e-002
      -1.6806548154299350e-001 2.9683388805531803e-002
      9.6342024169545057e-002 2.4992539524041818e-001
      3.9723235736690184e-002 -7.2787697865838483e-002
      1.3095470434083809e-001 4.5465910234663023e-002
      -2.9322199658568165e-001 6.6027740184241818e-002
      -6.4725721107586093e-002 -2.1080825203639891e-001
      -7.7491279757026365e-003 -9.4771716731826425e-002
      6.3822733179049712e-002 2.4204257544046506e-002
      -9.8426935669691781e-002 1.1770730341925348e-001
      5.2017207073776339e-003 7.4511165881466918e-002
      -9.3079374981651933e-002 4.7408711875791404e-002
      -2.0848502525422410e-001 -2.5617920656587238e-002
      -2.0175850952715940e-002 4.0355254122516192e-002
      6.3216242912325679e-002 -1.4161670311204361e-001
      -6.8471468534805416e-002 2.1493482889193411e-002
      -1.2725552370935175e-001 -5.8830792268851819e-003
      -1.2205266776023682e-001 1.3069114750048610e-002
      -6.1752818759651149e-002 6.4522944704751423e-002
      -4.0725637678061227e-001 1.2549019447054413e-001
      -1.1050115159308015e-001 -1.7941736911462936e-002
      1.2361511887878963e-001 6.2946462555426630e-001
      -2.0049589462945616e-001 -9.6300372237247564e-002
      -2.8790659637529209e-001 -7.9220195212285266e-002
      -8.9858873704275394e-002 1.5193296382694951e-001
      -1.0563682610854767e-001 -9.3826456546339629e-002
      -2.5882401295474543e-002 -6.6804357975681364e-002
      1.3639712942510968e-001 -2.6516075838642339e-001
      5.7062516259711121e-002 -2.5375516569837664e-001
      -1.1309588815764295e-001 2.3473899263795234e-001
      -8.0088031474363192e-002 1.2062572811301088e-001
      -9.3539794592640644e-003 -1.2768947836155192e-001
      4.1135656334054978e-002 1.3626405651565696e-001
      1.3507691543620376e-001 -9.0909768512569371e-003
      2.7513736397172611e-002 -1.4693508369992003e-001
      -4.3932543490056535e-002 5.0127139475179536e-002
      4.4925268448779337e-002 2.3922942197866057e-001
      1.1310743774775113e-001 -3.6325507223323672e-002
      5.8348239962030285e-002 6.9045860262151287e-002
      -9.8527856630600791e-002 7.3178046958368936e-002
      -1.4718383705091159e-001 7.1835592591153852e-002
      -7.5620804918711343e-002 -8.1560451019845378e-003
      1.1664947366932219e-002 -1.5126235046252479e-001
      -1.4733031480529865e-001 -1.4294785867148818e-001
      1.0125919443464901e-002 6.8661528993498672e-002
      1.2773800832240229e-001 -6.2093874396693401e-002
      -1.7179024662455772e-001 -1.3047833441591133e-001
      1.5313459655813078e-001 -3.2399686692708907e-001
      -1.8241679573027889e-001 4.6646276773340052e-002
      1.4664279682699877e-001 -1.1178798614025087e-001
      -2.8530018690173881e-002 8.0338690301174250e-003
      -5.2510639145609828e-002 6.0477322316289522e-003
      7.0991661286186739e-002 8.3413134685465753e-002
      -9.9813453560932991e-002 2.7776976393682828e-002
      -2.4698599980607149e-002 -2.4925745038796515e-001
      3.3260540108340356e-002 -2.0985327333923273e-002
      2.1379604876345706e-001 -2.7224074595523184e-002
      -8.8619529784649140e-002 1.8110681191373348e-002
      -1.1759039397058837e-001 -1.2649587574191356e-002
      -2.1956210863441755e-001 1.3845651179637691e-001
      -1.3225219325947418e-001 5.6492057021627934e-002
      -6.7755740593345284e-002 4.2767725381511641e-002
      -1.2313165915561580e-001 -1.4185740443313599e-001
      1.6183088633899164e-002 2.1782175240283516e-002
      -1.3139490106626367e-001 1.2382551674900892e-001
      -2.2049724714115709e-001 4.0396774068581366e-004
      -9.5896387540818848e-002 2.0701985874323875e-001
      8.5973216118588797e-002 -1.1292006355250571e-001
      1.5546376968860554e-001 -1.0075767490533530e-002
      -2.8656618820278018e-001 4.0257749168291578e-002
      -9.8715391720408191e-002 -3.8567044197732145e-002
      7.0666118815095408e-002 -3.1624599242985674e-001
      7.4470598646564939e-002 1.3857468046340934e-001
      -7.2697400510588726e-003 1.6602647582482151e-002
      4.5621058679260286e-002 1.7272154541064971e-001
      -1.6557179987318030e-001 5.1247985915680402e-002
      -2.0180819238745946e-002 -2.1446614438876785e-001
      -8.1648737265851562e-002 -1.2074736244709772e-001
      2.9938278638567280e-003 -1.6870270500151352e-001
      -4.1085841640884774e-002 7.1198763330252490e-002
      -2.5601227220562417e-001 1.7730230651823434e-001
      -8.6192971869099938e-002 1.3729629505084440e-001
      -5.3679987205331230e-002 -2.1734858593985714e-002
      -3.5251284181387421e-001 5.1813514741041178e-002
      1.5988240818476458e-002 7.7876764723836438e-003
      1.9567381326968289e-001 3.7938345373286347e-001
      -4.9444925855438099e-001 3.5192417208895596e-003
      -1.6797130393203327e-001 8.2036956122789079e-002
      -9.3596082454826451e-002 2.2018873578449349e-002
      1.6826387086750744e-001 -1.5946190164325763e-001
      8.8864434969189929e-003 -4.2912838498001767e-002
      3.6323394652851455e-002 -3.2632989087978054e-001
      6.9312393626532659e-002 -1.0778150574165379e-001
      9.4875798821949717e-004 2.8338070170518553e-001
      -1.5822727251977511e-001 -4.0665494191155657e-002
      -7.1451187956529577e-002 -9.0323834583684818e-003
      7.5788762502056725e-002 -2.5518328681268635e-002
      2.0347157894288503e-001 -4.7063445948893959e-002
      1.1629400897950452e-001 -1.4130542439430852e-001
      1.3315649304394703e-001 1.2194720114129065e-001
      -8.8004356682842094e-002 2.3236757668948740e-001
      3.3107860010925931e-003 -6.6253942323071816e-002
      1.0002835239206895e-001 2.4628522015268679e-003
      4.5425872626701905e-002 -7.3714299369772335e-002
      -8.0830797382641956e-002 7.6287785022877017e-002
      4.7086666842725895e-002 3.0965321172938310e-002
      -9.8415197962364129e-002 8.1861238669638667e-002
      9.5142887639299845e-002 -1.3790014019521724e-001
      6.6153799011687706e-002 3.0524389094865612e-001
      3.5646001267018800e-002 -7.6414348714112762e-002
      -1.4333619683199322e-001 -1.0008818400257188e-001
      1.3599999231202478e-001 -3.1195893933047342e-001
      -1.0058462649885785e-001 1.4136039398518307e-001
      3.8649029596249114e-002 -8.1442951161275368e-002
      -8.8994342545697692e-003 -3.0794371767085431e-002
      7.8700201549639429e-003 -9.0180550871159809e-002
      9.8966937463530247e-002 -6.6014320769851474e-003
      -3.4340251310851722e-002 -8.0322762841590178e-002
      1.1194638872735239e-001 3.2740378136591426e-002
      7.9147492261821953e-002 4.7084512540313331e-002
      2.8947119413570116e-001 -6.7538112051310231e-002
      1.3809623998177955e-002 1.2351422490343954e-001
      4.5288658251745814e-002 -1.1972941210608040e-003
      -3.0592190901120767e-002 8.9003119480856388e-002
      2.9928442714662534e-002 8.7299741583332355e-002
      -1.2355667902487015e-001 5.8947242950030079e-002
      -2.7481116874141165e-001 -4.6854723232507188e-002
      1.2107331532213404e-002 6.1203377866039535e-002
      -1.2339461805167216e-001 1.3566608521939805e-001
      -2.8135837393072421e-001 -3.9649323548142976e-002
      6.9271774059770738e-002 1.6709678668909467e-001
      1.2423324934888480e-001 -1.3456869469531910e-001
      1.9913739917611673e-001 -1.2803882042281434e-002
      -1.2427553853906566e-001 5.6953955268428620e-002
      -1.5957750640416643e-001 -1.8464024744072680e-001
      9.1181467323874901e-002 -2.9283813872980019e-001
      2.3441827633385079e-001 1.9567656714651660e-001
      -3.4141536617906164e-002 5.5731194040421067e-002
      2.4756287533192717e-002 2.7803187347930924e-001
      -1.2525451238407528e-001 1.1405865456220951e-001
      -1.9318023313842284e-001 -1.4056252619712051e-001
      -1.4073246418306476e-001 -1.0342873901989014e-001
      3.3110927668478438e-002 -1.7166493702148014e-001
      -2.5723766191969141e-003 1.0702456127326825e-001
      -4.0853383023168999e-001 2.9142540518268217e-001
      -9.0174226534134080e-002 1.6670185437847490e-001
      4.0242980325422298e-002 2.5311611738678044e-002
      -5.0517135829336646e-001 7.8849350746147170e-002
      -1.0702263852635574e-001 8.4490528210510826e-002
      1.4111709524676944e-001 2.4956174109506704e-001
      -4.3475757520838965e-001 -7.5498465783836136e-002
      -1.2624892430374604e-001 -4.0637133625912605e-002
      -5.6604383279198173e-002 4.0831671852858124e-002
      2.0253835475142754e-001 -2.1062696934348249e-001
      -5.4692832791162369e-002 -9.4622421084562966e-002
      7.2056330622730674e-002 -2.7274916891187795e-001
      -1.3214965129036874e-002 -6.0444142473744356e-002
      -8.4165454688292812e-002 3.3619883308525111e-001
      7.2432612521168491e-002 3.5749194692669871e-002
      -3.8503439457872296e-002 -4.1501988557869005e-002
      1.9482626467478274e-002 4.1116890214090436e-002
      2.2571331783104767e-001 -1.0050115378683736e-002
      1.1491604049565946e-001 -1.8102497242432852e-001
      1.8973719369774544e-002 1.2016978271136734e-001
      -6.0121146211417786e-002 2.8403707748432983e-001
      6.0161831138271426e-003 -2.1666697842197612e-002
      1.3669675473228188e-001 2.6972813140442871e-002
      -2.5113066791344868e-002 -9.4455839505563216e-002
      -1.0641880691602644e-001 9.8159716679180165e-002
      -3.0975597442205155e-002 2.1980135493859503e-002
      -3.7328955682896237e-002 6.5331119510146557e-002
      1.8151951448748756e-002 -4.9613645493970737e-002
      8.8591528020464799e-002 3.1230369848988260e-001
      2.0545257883339293e-001 -2.3064816644258818e-001
      -3.2511487378996151e-001 -1.7443397013074000e-002
      1.3279129123710406e-001 -4.1721444893394616e-001
      -5.8292736903924523e-002 7.7546847296466062e-002
      6.1444905333044829e-002 -4.3213243407494127e-002
      -5.4468681647278909e-002 1.8974650828553065e-003
      3.8789170268560311e-002 -1.6630718523745619e-001
      1.3874089967109168e-001 -2.6041261793793576e-002
      -1.5782807496528789e-001 -1.2450868179121240e-001
      9.2177434139686626e-002 1.7703063357184165e-001
      1.3674600134833351e-001 8.4226175930253624e-002
      1.9452234968066220e-001 8.0634109955568401e-003
      -1.5736899576288552e-001 -2.7490152825532937e-002
      3.6311743432244137e-002 -3.5616604024099760e-002
      1.5298612900351052e-001 1.8158958407303069e-001
      -7.1666132651963449e-002 1.9286546552290762e-001
      -1.2764921135334242e-001 1.1531706066088922e-001
      -1.3207331544314208e-001 4.7665668953974581e-002
      1.6440403167799177e-002 1.3027576480453676e-002
      -5.9294182697288068e-002 -8.6151801478742563e-003
      -1.5490395311469127e-001 1.6391520559525938e-001
      1.2581415976079610e-001 6.9296565817703909e-002
      4.7335724755605074e-002 -1.4258407643628782e-001
      5.1334981763315260e-002 8.0102371750536930e-002
      -2.5547692686155205e-001 3.1834771644666943e-002
      -1.8463566799989906e-001 -2.4704922048126446e-001
      -6.2247892066840341e-003 -4.2525371652958562e-002
      2.1556820324576592e-001 3.5889364265529222e-001
      -1.5873161107841694e-002 6.8268010804106910e-002
      1.0436182039953468e-001 3.3096276780138711e-002
      -1.1667322206894459e-001 -8.3396202691648588e-002
      -1.4443105248136320e-001 2.1711815040142465e-001
      -6.5936520480004854e-002 5.1720808000114540e-002
      1.3143669362285976e-001 -9.8120413105975912e-002
      -9.0845970260019171e-002 -2.2928567899325150e-003
      -2.2401321121525894e-001 2.4260951782856720e-002
      -6.4182299656170977e-002 -9.3958853181696431e-002
      1.1756793109259453e-001 2.1821876935029523e-002
      -2.7294675135276064e-001 2.9673676642958802e-001
      -2.9365211905122150e-002 -5.3025424365290702e-002
      2.8281150325383247e-001 3.1904438985690819e-001
      -2.3651814460233808e-001 -6.8196396402183682e-002
      -1.5160198869519850e-001 -5.7009977691979623e-002
      7.2550535583972592e-002 6.7979117781448634e-002
      -5.9803840177310087e-002 9.9545184696969116e-002
      -4.6157420873277587e-002 6.5076722676927670e-002
      -9.6832916063833763e-002 -2.6931864024886343e-001
      -1.1773174171600165e-001 -1.2549426650966139e-001
      2.6934289756936625e-002 2.8344148754182430e-001
      -1.5019095408622568e-001 1.3543431254363328e-001
      1.1660314889323722e-001 -3.6912637042256703e-002
      -5.9501931413448138e-002 2.0591588878281980e-001
      1.6208347953868241e-001 -6.3699746180189171e-002
      -1.3888089151463476e-001 -2.7376878269309612e-001
      -2.4635085014775817e-002 7.6449462905053195e-002
      -9.5523088918368082e-002 8.5050222212367577e-002
      -4.7927211937262591e-002 9.7858615609470512e-002
      6.4716046185361073e-002 -1.1663964876975172e-001
      3.9155035082221935e-002 1.9012911200115796e-002
      -1.7098710217663912e-001 -5.5580923583434916e-002
      -1.0413063785337799e-001 7.3719220809184555e-002
      2.0116833803913239e-002 -1.1876991440032832e-001
      -4.1492340695095942e-001 -1.0325955344135979e-001
      -2.9498036619155477e-001 -5.5639728486257083e-002
      3.3752464796974718e-001 -1.5970503880653661e-001
      -1.4261315969595503e-001 -3.0924693989296259e-001
      -6.3936593607628420e-002 -1.0895812383944234e-001
      1.5055086534798662e-001 -1.3919255795851271e-001
      1.3346514981735574e-001 -1.5145450318108701e-003
      1.2862960707945426e-002 5.2480765540465275e-002
      1.5895771370583168e-002 9.9512253213897478e-002
      2.1146410368670249e-001 1.3239886388797469e-002
      8.8748479126239017e-003 -3.3136145909491238e-002
      6.7108484360469808e-003 -2.3773747828279038e-001
      1.3066955697443754e-002 -1.0844659764542992e-001
      1.2598655876343642e-001 1.5745186678177126e-003
      5.2220860604515335e-003 -2.8285689237756040e-002
      7.1865206126521655e-002 -3.0906226015400582e-002
      2.8366160768913892e-002 -8.6159684649568802e-002
      1.4317995757209645e-001 5.2878746464304745e-002
      -2.0194779543075754e-002 4.3607070781758420e-002
      -1.1260363810945900e-001 4.6436728126083182e-002
      -1.6547448583093195e-002 -3.0240442443439243e-002
      8.3898766283826663e-003 1.6834645939995230e-002
      4.9446102552849897e-003 1.4769959355187767e-002
      5.6813978683272058e-002 -5.7862993093969438e-002
      1.0826462420561998e-001 1.8505640198600733e-002
      4.6965793689353094e-002 4.1502900271077198e-003
      -2.1344249811420754e-001 1.0826464471090913e-001
      -7.2924801095045039e-002 -9.2839830174651666e-002
      -2.4479491049950071e-002 -1.2011981078154491e-001
      1.4118175669389832e-001 2.9360533362024532e-001
      -1.9837132648548046e-002 2.4016301810770760e-002
      -4.1755026013388950e-002 -3.9194725388331755e-002
      -3.5315908606992706e-002 -7.1058770172039903e-002
      -1.2693557256960333e-001 1.1401396419262627e-001
      -3.7232908681933775e-002 -2.3779251787440534e-002
      1.3733769834152781e-001 4.4215096389975159e-002
      -2.7840259714464733e-002 1.6423581505818736e-003
      -1.5929175706890666e-001 1.3253594526349360e-001
      4.9035731861936216e-002 -8.2317772682827209e-002
      1.2877090836109276e-001 1.1647037720132625e-001
      -1.1093178522953798e-001 1.1505640757425376e-001
      1.0706832516646647e-002 3.6518462902488107e-002
      1.3141867623634709e-001 -1.6799967544529393e-002
      -2.0818169831086483e-001 -4.3146131278101407e-002
      -2.4045256996608821e-001 -7.9960116593812414e-002
      4.0621476455586072e-002 3.8158168788287483e-002
      1.2968969340846268e-002 4.5015197895042831e-002
      -1.1007842096144314e-001 3.8853463046332519e-002
      -6.5160618133626794e-002 -1.3609773112530091e-001
      -5.4837822295594842e-002 -2.6317318344376023e-002
      6.1282938151423265e-002 1.6936051472611299e-001
      5.3948676997997193e-002 9.7114596783813401e-002
      7.5578289039706648e-002 -8.2395043327575454e-003
      -4.8286629917512244e-002 1.3005882392084422e-001
      -7.9828379302270824e-002 -5.9233151517954375e-003
      -1.1241019074641745e-001 -6.0144777693175389e-002
      -9.3775446836899708e-003 -3.0570080471198236e-002
      -2.2074813369222509e-002 -6.3366163925591870e-002
      -3.8500622176476956e-002 2.3855450093515342e-002
      1.3436748182494450e-002 -1.5506062975354349e-002
      -1.8242248270639600e-002 6.3567264326372996e-002
      -1.3936617475912598e-002 -3.3642882407459600e-002
      -8.8482567111762028e-002 3.8284537808646584e-003
      2.4910682569100961e-002 -5.9031998413394904e-002
      -2.7695579582165003e-001 1.2350985719251709e-002
      -2.3539044976335468e-003 -1.4269187157103788e-001
      1.4618248050944621e-001 -8.6258229838355849e-002
      -4.7623223006045483e-002 -2.0674436159076726e-001
      -1.5998048712854032e-001 -2.4396735527564795e-001
      1.0837808057110754e-001 -9.0589563305591023e-002
      2.4822437831194703e-002 3.2889302956629646e-002
      8.5758631287550929e-003 -7.2609849732940424e-003
      2.2694716679599866e-002 1.4694895164921976e-001
      6.7513466112155807e-002 -7.6724896477748583e-003
      -4.2076863651016962e-002 7.8760066327115935e-002
      8.1343317244023296e-003 -2.2046365186530797e-001
      -9.1325546123204177e-003 1.7515827145805206e-002
      -1.9128023815563666e-001 -5.7403566081038241e-004
      1.6820231789638357e-001 1.5649874838793298e-001
      7.3907095262417913e-002 5.4608439742719034e-002
      -5.9395141748438046e-002 -7.8931921728481430e-002
      2.3410715060726459e-001 1.1165769181488838e-001
      -1.1467288876706410e-002 2.5564146866170062e-002
      -1.3290462479480469e-001 -4.5267713239958429e-002
      -5.3236502294023443e-002 4.7313765545061656e-002
      2.3136802473170452e-002 1.6273575220204609e-001
      -1.2462296465210115e-001 1.4773126100063191e-002
      9.9622885078919213e-002 7.4008260142533588e-002
      1.0297439067337405e-001 -1.4665481756284665e-004
      5.6274119429275335e-002 3.7706280279218372e-002
      -5.2871408120906974e-002 1.9050414129960454e-002
      2.7261195284432608e-002 -1.0280658081825955e-001
      -6.7238264714046661e-002 8.2907343843664036e-002
      2.8937387374820215e-002 2.3154724069150817e-001
      1.7557331405040103e-003 2.7039967530926003e-002
      -3.7920636745506435e-002 7.6472802683030666e-002
      1.3515200325280370e-002 2.7387194357205481e-002
      -2.1013218182791885e-001 6.9289913798484676e-002
      -1.1780443700791646e-001 -8.8136902063990011e-002
      4.8655557325165917e-002 -8.8665318234973076e-002
      7.5757772380320790e-003 2.4847414942580200e-002
      -2.2366468267434145e-001 2.5301888940055939e-001
      -2.5985284507766822e-002 -5.3178738324003551e-003
      4.5395819577569690e-002 8.6151878431817278e-002
      -1.2246659832890607e-001 6.9219196594050916e-002
      -5.4145348534655691e-002 -7.3811746873048451e-002
      2.2117689196821258e-001 1.5488740831892492e-001
      -1.1857266694734707e-001 -3.0346687541171657e-002
      -1.9479381871071549e-001 -5.3484105499641235e-002
      1.6108412540227809e-002 4.4136037289315797e-002
      -1.9341890652245605e-002 2.6525919026688796e-002
      2.5223562177028251e-002 1.3774763546295105e-002
      8.6564219533125115e-003 7.2056875183622989e-003
      8.4242167028349288e-002 -9.3345531145455733e-003
      -8.3559253080775664e-002 4.2650108147748472e-001
      1.1662626945108896e-001 1.0773677821478718e-001
      -3.1195758103278924e-002 -4.0260151397935394e-002
      2.1817060763648539e-002 6.1976448231220019e-002
      -1.7971969775171803e-003 8.6239257059561245e-003
      -1.1839488789860386e-001 -4.6781135661697816e-002
      1.2967592377451806e-001 1.3789009990767374e-002
      3.3463295248496928e-002 -1.6394879403281958e-003
      -1.0467935379702527e-001 2.5959941110946707e-002
      -2.2726437425833666e-002 -2.5282047310593109e-002
      -2.3956617709917315e-002 -7.5226626341986153e-002
      -6.9821886089121543e-002 2.9426560162198068e-002
      -7.0201831403865808e-002 -1.4237062924689885e-002
      -5.5455754876417664e-002 1.4615606264938122e-002
      1.7404650937791692e-002 2.7589678011245511e-002
      -7.0672449147584179e-002 1.1973255459674149e-001
      2.7616199493023752e-001 7.0852453433063109e-002
